{"N_Neurons_sink_net": 82, "N_Edges_sink_net": 1680, "input_ids_sink_net": [1], "output_ids_sink_net": [82], "bias_sink_net": [0, -0.4405779540538788, -0.9677841663360596, 0.5065410137176514, -0.21379685401916504, 0.1500381976366043, -0.8230029344558716, -0.5837033987045288, -0.4143544137477875, 0.6635300517082214, -0.8738481998443604, -0.2982943058013916, 0.3726426661014557, -0.9535195827484131, 0.38391587138175964, -0.5253524780273438, -0.5139824151992798, -0.6823756098747253, 0.4433368146419525, -0.6718679666519165, -0.3154475688934326, -0.5089279413223267, -0.6760996580123901, -0.485173761844635, -0.20647305250167847, -0.35380399227142334, -0.2634396553039551, -0.2370091676712036, -0.5391327142715454, -0.76598060131073, -0.6105955839157104, -0.1328718662261963, -0.522533655166626, -0.762109100818634, 0.6900534629821777, -0.8861391544342041, 0.8334636688232422, 0.5080313086509705, -0.48845940828323364, 0.3818526566028595, -0.0032203197479248047, 0.09093614667654037, -0.06467735022306442, 0.04355484992265701, 0.11386137455701828, -0.07435740530490875, -0.15751893818378448, -0.1267087310552597, 0.16548624634742737, -0.03377951309084892, -0.0147554324939847, -0.3374346196651459, -0.07907527685165405, -0.05735621228814125, -0.08270686119794846, -0.15180715918540955, 0.18060626089572906, -0.07484970986843109, -0.1491953283548355, -0.1977117508649826, -0.10130450129508972, -0.12583959102630615, 0.17396636307239532, -0.1573297083377838, 0.11184512823820114, 0.014124004170298576, -0.0718253031373024, -0.10875722020864487, -0.008997814729809761, -0.046208709478378296, 0.1282164752483368, -0.10086563229560852, 0.041182346642017365, -0.12640801072120667, -0.40501758456230164, -0.11057401448488235, 0.0197561327368021, -0.02922508493065834, -0.026628810912370682, -0.07102303206920624, 0.20738562941551208, 0.024186493828892708], "edge_weight_sink_net": [0.3911401927471161, 0.5898174047470093, -1.8702802658081055, -0.48739123344421387, -1.3755134344100952, -0.5341529846191406, 0.3911111354827881, -0.11084374785423279, -1.6811496019363403, -0.12583959102630615, -0.9544827938079834, -1.4924498796463013, 0.6031697988510132, -0.08592528104782104, 1.2192206382751465, 0.325624942779541, 1.134796142578125, -0.5164026618003845, 0.524482011795044, -0.731785774230957, -0.9194612503051758, -0.11670804023742676, 0.32904285192489624, 0.0703178271651268, -0.8697724342346191, -0.523553729057312, -0.40847113728523254, -0.2780536413192749, -0.6494847536087036, 0.20814263820648193, -0.9176442623138428, -0.8515806198120117, 0.9408684968948364, -0.705430805683136, 0.0012252330780029297, -0.8275627493858337, -1.9447736740112305, 0.5877103805541992, -0.6613589525222778, -0.7806419134140015, -0.005568792577832937, 0.01803215779364109, -0.3272351026535034, 0.14419031143188477, -0.052695382386446, 0.04745577648282051, 0.14784128963947296, 0.08947649598121643, -0.22323499619960785, -0.10419569909572601, -0.12635590136051178, -0.16751477122306824, 0.007207476068288088, 0.1571834534406662, -0.6611220240592957, -0.130915105342865, 1.7075878381729126, -0.015334774740040302, -0.026777060702443123, 0.15075157582759857, -0.10637318342924118, 0.10176192224025726, 0.2014690786600113, -0.07537737488746643, -0.06352852284908295, -0.08878248184919357, 0.156596377491951, -0.0718168392777443, 0.11469235271215439, -0.09102718532085419, -0.11618337780237198, 0.021691545844078064, -2.423740863800049, -0.09593964368104935, 0.04890834540128708, 0.22537486255168915, -0.5454499125480652, -0.5165748596191406, 0.22065813839435577, -0.01968463696539402, 0.05166729912161827, -0.01807890273630619, 0.054212335497140884, -0.10870182514190674, 0.06515809893608093, 0.15626469254493713, -0.13784348964691162, -0.03135637566447258, -0.08123243600130081, 0.15014491975307465, 0.0032705413177609444, 0.1551041156053543, -0.007862485013902187, -0.009365363046526909, -0.08846232295036316, 0.14332619309425354, 0.07392347604036331, 0.12314634770154953, -0.021645857021212578, -0.12014076113700867, -0.043348658829927444, 0.12863518297672272, -0.12368534505367279, 0.04007604345679283, 0.008598449639976025, 0.1524287313222885, -0.14330577850341797, 0.07862167060375214, -0.08740975707769394, -0.12535786628723145, 0.041146550327539444, -0.11055099219083786, 0.09610195457935333, -0.10943718254566193, 0.1316603571176529, 0.04852883145213127, -0.009158065542578697, 0.14577412605285645, -0.1187068521976471, -0.11460531502962112, -0.04350871220231056, -0.12144501507282257, -0.16357459127902985, -0.07487751543521881, -0.0030891268979758024, 0.01527369674295187, -0.021975087001919746, -0.11472596228122711, 0.030710527673363686, 0.11767083406448364, -0.02509642206132412, -0.04421348124742508, -0.056841325014829636, -0.03346956893801689, -0.05013858899474144, -0.0977892354130745, -0.09884513914585114, 0.006546811666339636, 0.003756233025342226, 0.06753894686698914, 0.07963540405035019, 0.0965316891670227, 0.06124551221728325, -0.08508165925741196, 0.024840136989951134, 0.06994219124317169, -0.2367001622915268, 0.012020156718790531, -0.10202595591545105, 0.08411755412817001, 0.04571657255291939, -0.09602546691894531, -0.0117282560095191, -0.15801112353801727, -0.049109406769275665, -0.22856560349464417, -0.10250072181224823, -0.15019267797470093, 0.011903387494385242, 0.07260701060295105, 0.023848364129662514, -0.15160897374153137, -0.3250349462032318, 0.010704144835472107, -0.29132968187332153, -0.11446285247802734, 0.11551672220230103, 0.05052345246076584, -0.5915491580963135, 0.06375446170568466, 0.04349132254719734, -0.8386273384094238, 0.15033714473247528, 0.03745861351490021, -0.9016494750976562, -0.01660395786166191, 2.201251983642578, 0.03146316111087799, -0.1209888756275177, -0.14415204524993896, 0.05521753430366516, 0.11357629299163818, -0.0038574468344449997, -0.14190101623535156, 0.03831280767917633, 0.10868491977453232, 0.08236958086490631, 0.030424198135733604, 0.016352951526641846, 0.11059405654668808, 0.03603065386414528, -0.14817138016223907, -2.54727840423584, -0.07396712899208069, -0.01564071699976921, 0.08074600249528885, -0.911614179611206, -0.8020109534263611, -0.012982144020497799, -0.13521963357925415, 0.12132246047258377, 0.07394115626811981, 0.055069178342819214, -0.09564457833766937, 0.1094040647149086, 0.13719071447849274, -0.055270083248615265, -0.15299569070339203, -0.03299664333462715, -0.06632174551486969, -0.053749676793813705, -0.023249274119734764, -0.11842052638530731, 0.015321006998419762, -0.13103951513767242, -0.023283012211322784, -0.043386977165937424, 0.05994722619652748, 0.08392049372196198, -0.06841571629047394, -0.08023747056722641, -0.13228073716163635, -0.1060451790690422, 0.11771884560585022, -0.15185870230197906, -0.13037556409835815, -0.06456252187490463, 0.042729347944259644, 0.053222350776195526, -0.11907590925693512, -0.015709666535258293, 0.015650425106287003, -0.026733577251434326, -0.12870055437088013, -0.07458755373954773, 0.04732489213347435, -0.05250908061861992, -0.15127655863761902, 0.04449797049164772, -0.03164952993392944, -0.058998629450798035, 0.02231862209737301, 0.1484350711107254, -0.05601709336042404, 0.07972414791584015, -0.016327127814292908, -0.11968521028757095, -0.12594248354434967, -0.005421227775514126, -0.005678549874573946, 0.06198050454258919, -0.14171338081359863, -0.1469319462776184, 0.014709971845149994, -0.032510120421648026, 0.04617512598633766, 0.017355095595121384, 0.10123131424188614, -0.025509659200906754, -0.022710824385285378, 0.09133070707321167, -0.029736770316958427, 0.07598347961902618, -0.0437949001789093, -0.105379618704319, -0.0725085660815239, -0.1495581418275833, 0.13703417778015137, -0.08994834870100021, -0.13187870383262634, 0.13249774277210236, -0.14017286896705627, 0.13382305204868317, -0.0999302864074707, -0.12325149029493332, 0.09815749526023865, 0.03613686561584473, -0.095313161611557, -0.09063722938299179, -0.11161220818758011, -0.17526328563690186, 0.02519000507891178, -0.6137566566467285, 0.0524417906999588, -0.18719613552093506, 0.08322153240442276, 0.039669740945100784, 0.05498865246772766, -0.4458064138889313, -0.06794151663780212, 0.15494360029697418, -0.575439989566803, 0.06034112349152565, -0.10188884288072586, -0.9960969090461731, 0.022854376584291458, 1.3921635150909424, -0.050374116748571396, -0.09274831414222717, 0.09504617005586624, -0.02467496693134308, -0.0071138362400233746, 0.11081021279096603, 0.14953278005123138, 0.02646852843463421, -0.015179171226918697, -0.027103429660201073, -0.08301328867673874, 0.07028581947088242, -0.006191063206642866, -0.02630739100277424, -0.09525816142559052, -2.3280625343322754, 0.061543531715869904, 0.12840931117534637, -0.14417307078838348, -0.8383256793022156, -0.5087340474128723, -0.053467344492673874, 0.03893756493926048, -0.21251145005226135, -0.0960690826177597, -0.6117817163467407, 0.10720938444137573, 0.032965291291475296, -0.030151966959238052, -0.08144564926624298, -0.011819991283118725, -0.5438611507415771, -0.02137034758925438, 0.025052562355995178, -0.6654731035232544, -0.07934826612472534, -0.09069696068763733, -1.0048633813858032, 0.08312268555164337, 1.8570637702941895, -0.08705032616853714, 0.06975413858890533, 0.15461701154708862, 0.043685972690582275, -0.15700675547122955, -0.03433053568005562, 0.004420618526637554, -0.011055069044232368, -0.1359623372554779, -0.0544721893966198, 0.12159450352191925, 0.11003676056861877, 0.045306652784347534, -0.08210593461990356, -0.11739150434732437, -2.373201847076416, 0.1083991751074791, -0.0028379836585372686, 0.0005146824405528605, -0.6792297959327698, -0.4890173375606537, 0.16564707458019257, -0.0960332378745079, -0.09476469457149506, -0.15767352283000946, 0.009921528398990631, -0.0037702941335737705, 0.034544285386800766, 0.12030024081468582, 0.14877037703990936, -0.17489181458950043, -0.02719092182815075, 0.011126562021672726, 0.12864680588245392, -0.037201881408691406, -0.046659648418426514, 0.008735201321542263, -0.04825637489557266, -0.08124681562185287, -0.06063873693346977, -0.2049122303724289, -0.047888729721307755, 0.08810701966285706, -0.14797213673591614, -0.11262256652116776, -0.08481945097446442, -0.16244786977767944, -0.11975198984146118, -0.028108548372983932, -0.10932351648807526, 0.11720175296068192, -0.023433199152350426, 0.13902416825294495, 0.005513077601790428, 0.11632887274026871, -0.20250071585178375, -0.06105327606201172, -0.11532210558652878, 0.0503966324031353, 0.06409153342247009, -0.17966006696224213, 0.055786505341529846, -0.11744802445173264, -0.2545577883720398, 0.15200236439704895, -0.4607960283756256, 0.11104936897754669, 0.04491456598043442, 0.0046113962307572365, -0.049090951681137085, -0.1411300152540207, -0.3625018298625946, 0.1272103488445282, 0.14608170092105865, -0.6067477464675903, 0.06502717733383179, 0.046937599778175354, -0.8806533217430115, -0.03170662373304367, 1.7408573627471924, 0.19564589858055115, 0.05308939144015312, -0.051409997045993805, -0.14987492561340332, 0.13006415963172913, 0.0018151712138205767, -0.03678081929683685, -0.15755705535411835, 0.11662228405475616, 0.15914277732372284, -0.05263357236981392, 0.14000073075294495, -0.09132341295480728, -0.09714189171791077, 0.016431136056780815, -2.6387948989868164, 0.07328180968761444, -0.14641162753105164, 0.3126569092273712, -0.8591310381889343, -0.7001822590827942, 0.16514621675014496, -0.041400764137506485, 0.03300335258245468, 0.0845174491405487, -0.20882320404052734, -0.10554897040128708, -0.4204879105091095, 0.002845014212653041, -0.0600733608007431, -0.32524487376213074, -0.37235528230667114, -0.15183638036251068, -0.06548929214477539, -0.26996639370918274, -0.034158021211624146, -0.413877934217453, 0.0661524087190628, 0.0446862131357193, 0.01686222292482853, -0.17436379194259644, -0.006452079396694899, 0.07132741063833237, 0.15577276051044464, -0.10111639648675919, -0.156271830201149, -0.2141713798046112, -0.06181418150663376, 0.09218428283929825, -0.3663126826286316, 0.00287138344720006, -0.14833392202854156, 0.10171574354171753, -0.12713788449764252, -0.1355789303779602, -0.0927652046084404, -0.3901922404766083, -0.15338201820850372, -0.22321996092796326, -0.1581728756427765, -0.37407636642456055, -0.3900933861732483, 0.13305264711380005, -0.1404344141483307, 0.07126431167125702, -0.21454495191574097, 0.0014158535050228238, -0.21843746304512024, 0.05311385542154312, 0.0036846082657575607, 0.021476978436112404, 0.0449879989027977, -0.05075191333889961, 0.13194459676742554, 0.0743248462677002, 0.15241391956806183, -0.0394563227891922, -0.12397116422653198, -0.07495483756065369, -0.04317966476082802, -0.05727079138159752, 0.12462981045246124, -0.1390124261379242, 0.14436541497707367, 0.14697039127349854, -0.17603449523448944, -0.05764895677566528, 0.008157184347510338, -0.04061639681458473, -0.17430445551872253, 0.04016973823308945, -0.14778035879135132, 0.08368918299674988, 0.01716436631977558, -0.07670413702726364, -0.11797826737165451, -0.11860382556915283, 0.14574366807937622, -0.22469687461853027, -0.00459750322625041, -0.07335013896226883, 0.03895771875977516, -0.013155674561858177, 0.0499490462243557, -0.05335035175085068, -0.04843159019947052, 0.11412250250577927, -0.10452788323163986, -0.08649510890245438, 0.14619745314121246, -0.1229800209403038, 0.030200691893696785, 0.028560897335410118, -0.15286904573440552, 0.02580963633954525, 0.1016857922077179, -0.050018295645713806, 0.01446241233497858, -0.03644564375281334, -0.19022759795188904, -0.2080279290676117, 0.15447165071964264, 0.011798742227256298, -0.0030171212274581194, 0.1508994996547699, -0.07332193106412888, 0.02097674086689949, 0.004710747394710779, 0.009539562277495861, -0.028500644490122795, 0.1464775800704956, -0.11828683316707611, 0.11488263309001923, -0.03549955412745476, 0.03458194434642792, -0.0792071595788002, -0.13233362138271332, -0.1452951282262802, -0.05573781952261925, 0.029601814225316048, 0.0986444279551506, -0.050805509090423584, -0.10662195086479187, -0.15008452534675598, -0.034562718123197556, -0.24139057099819183, -0.10466359555721283, -0.24288122355937958, 0.08542224019765854, 0.11083775013685226, 0.023424912244081497, -0.10324151068925858, 0.007474599406123161, -0.1411944329738617, 0.10964569449424744, -0.15752466022968292, -0.11608480662107468, -0.2006741762161255, 0.15254034101963043, -0.010260000824928284, -0.03170713037252426, 0.1501592993736267, -0.048482105135917664, -0.007818982936441898, -0.06695573776960373, -0.09151984751224518, -0.16841527819633484, 0.03961125388741493, 0.11546792089939117, -0.0254276841878891, -0.15444974601268768, 0.12978917360305786, -0.11780483275651932, -0.063984714448452, 0.14645974338054657, -0.24480198323726654, -0.11312112212181091, -0.14946241676807404, -0.21803605556488037, -0.0825410932302475, -0.0541350394487381, -0.016034580767154694, -0.010267119854688644, -0.14098387956619263, -0.13827624917030334, 0.048063382506370544, 0.10834893584251404, -0.038120947778224945, -0.14475344121456146, 0.0658835843205452, 0.03252910077571869, 0.10147704184055328, 0.03219614177942276, 0.016982363536953926, -0.0886705219745636, 0.028524067252874374, -0.0750175416469574, -0.05369942635297775, 0.1543952375650406, 0.0354856438934803, -0.08987630903720856, 0.04233124479651451, -0.1525930017232895, -0.0960330069065094, 0.040028128772974014, -0.10592140257358551, 0.06986737996339798, 0.14981211721897125, 0.0388692207634449, -0.020248889923095703, -0.02301841601729393, 0.047319747507572174, 0.037374429404735565, -0.10960989445447922, -0.04731333628296852, -0.012529107742011547, -0.013593924231827259, -0.013951784931123257, -0.13781766593456268, -0.13019733130931854, -0.12567996978759766, -0.1132475882768631, -0.1496976613998413, 0.17493414878845215, 0.15130573511123657, -1.007214069366455, -0.13799592852592468, -0.017286138609051704, -0.13581690192222595, -0.0883517935872078, -0.09805537760257721, -0.8679530024528503, 0.06078849732875824, 0.08762888610363007, -0.8631409406661987, -0.022693729028105736, 0.08175775408744812, -0.6557997465133667, -0.08143628388643265, 1.9072799682617188, -0.19586260616779327, 0.01735694333910942, 0.0019422395853325725, -0.008738400414586067, 0.07630321383476257, 0.004829250276088715, -0.011214349418878555, -0.04941776767373085, 0.10016133636236191, 0.034418486058712006, 0.005076033994555473, -0.09260747581720352, 0.04447638988494873, 0.00917288102209568, 0.08740728348493576, -2.6192104816436768, 0.06846816837787628, 0.037197910249233246, -0.01589476317167282, -1.4179458618164062, -0.6049184203147888, 0.06952306628227234, -0.020434077829122543, 0.053380921483039856, -0.019432971253991127, 0.08220809698104858, -0.12547151744365692, -0.13379059731960297, -0.0016455620061606169, -0.11185269802808762, -0.015489613637328148, -0.0469338558614254, 0.1078454926609993, 0.0005427090218290687, -0.13289082050323486, -0.060520071536302567, -0.19763979315757751, -0.061350177973508835, -0.0171393733471632, -0.09299656748771667, -0.20474983751773834, 0.0002832008758559823, -0.035829443484544754, 0.002656923606991768, 0.026684967800974846, 0.02061525173485279, 0.06368569284677505, -0.14676690101623535, 0.12064903974533081, -0.10787699371576309, -0.12680216133594513, 0.022953106090426445, 0.08725934475660324, 0.028177723288536072, 0.09265746176242828, -0.07887335866689682, 0.08745016902685165, 0.04060649871826172, 0.09697023779153824, -0.02239319309592247, -0.182143434882164, -0.08088098466396332, 0.09168453514575958, -0.05169106647372246, 0.04209475219249725, -0.07286574691534042, 0.07815886288881302, -0.025963667780160904, 0.15350224077701569, -0.12661688029766083, -0.12634718418121338, 0.03453310951590538, -0.05237031355500221, 0.09113717079162598, -0.06579955667257309, -0.15321899950504303, 0.10250499099493027, -0.14238712191581726, 0.12868885695934296, -0.00264925230294466, 0.02599831111729145, -0.06616844236850739, -0.058866728097200394, 0.03877303749322891, -0.14059439301490784, -0.08705796301364899, -0.05483847111463547, 0.07320907711982727, 0.09521780908107758, -0.018664510920643806, 0.03500590845942497, 0.00023886885901447386, 0.06931626051664352, -0.07081716507673264, -0.1523311585187912, 0.13385573029518127, 0.024725858122110367, -0.0747113898396492, -0.0914643406867981, 0.11739835888147354, -0.0626760721206665, -0.1153586208820343, 0.067265585064888, -0.19698311388492584, -0.03431493416428566, -0.13161048293113708, 0.027904681861400604, -0.05901942774653435, 0.05207105353474617, -0.05068518966436386, -0.16401822865009308, -0.13851746916770935, -0.02385655790567398, -0.1350482851266861, 0.07590048760175705, 0.006292431149631739, -0.11136193573474884, -0.30553296208381653, 0.12291047722101212, -0.42913979291915894, -0.022726615890860558, 0.1363784223794937, -0.0838996097445488, -0.06616853922605515, -0.12530653178691864, -0.0808696523308754, -0.16410112380981445, -0.042272549122571945, 0.0465509295463562, -0.03620930388569832, -0.1530604511499405, 0.048400528728961945, 0.05668022856116295, 0.09359550476074219, 0.0054231504909694195, -0.050484318286180496, -0.023495236411690712, -0.0929597020149231, -0.3106537461280823, 0.05587974563241005, -0.2289632111787796, -0.20053993165493011, 0.15546847879886627, -0.15018829703330994, -0.03367847204208374, -0.012306354939937592, -0.10660992562770844, 0.11844497174024582, 0.08765748143196106, 0.04414976388216019, -0.055337753146886826, 0.05312177166342735, 0.027726203203201294, -0.06731725484132767, -0.12255444377660751, 0.11540892720222473, 0.04585826024413109, -0.05661408603191376, 0.07927588373422623, 0.0985417291522026, -0.10019693523645401, -0.07157207280397415, -0.005003334954380989, -0.0025881826877593994, -0.05640332028269768, 0.043448686599731445, 0.11550506949424744, -0.06024220585823059, 0.15166527032852173, -0.07536820322275162, 0.09521030634641647, 0.09883978217840195, 0.05648365616798401, 0.060049403458833694, 0.12270376831293106, 0.1407613456249237, 0.00045381879317574203, 0.1179206371307373, 0.15001803636550903, -0.12932926416397095, -0.13098911941051483, -0.13480065762996674, -0.11579036712646484, -0.1401115208864212, 0.07564520090818405, 0.15192894637584686, -0.044153548777103424, -0.09454905241727829, 0.1568996012210846, -0.14963039755821228, 0.025683332234621048, -0.04755616560578346, 0.028008444234728813, 0.1223992109298706, 0.05185755714774132, 0.11172433197498322, 0.08033227920532227, -0.046250857412815094, 0.014460905455052853, 0.024371974170207977, 0.02326299622654915, -0.134861558675766, -0.033074431121349335, 0.1442694365978241, 0.0002485947625245899, 0.13412858545780182, -0.04671429097652435, 0.12830467522144318, -0.02319306693971157, -0.09741420298814774, -0.07024288177490234, -0.07184591889381409, 0.05886823311448097, -0.06810987740755081, -0.1430339813232422, -0.010597800835967064, 0.011426424607634544, 0.08376186341047287, -0.07231934368610382, -0.00161357584875077, 0.11860107630491257, 0.040430791676044464, -0.06732466071844101, -0.12287835031747818, -0.11199019849300385, -0.15771867334842682, 0.1351887285709381, 0.04627344384789467, -0.13767628371715546, 0.14007984101772308, 0.015632349997758865, -0.4393117427825928, 0.005923054181039333, -0.04488834738731384, -0.15883061289787292, 0.024213872849941254, 0.07247141003608704, -0.8279279470443726, -0.09400331228971481, 1.917509913444519, 0.07790961861610413, -0.0687270388007164, 0.02051147073507309, -0.13836751878261566, -0.12588638067245483, -0.0398995615541935, -0.009779626503586769, 0.13086363673210144, 0.11462783813476562, 0.061156414449214935, -0.12154915183782578, 0.030308902263641357, -0.022511010989546776, 0.03561705723404884, 0.03257358446717262, -2.4089131355285645, -0.06296698749065399, -0.09188909828662872, 0.09273837506771088, -0.40913012623786926, -0.8037687540054321, 0.12682723999023438, -0.01768726482987404, -0.1024581715464592, -0.08563994616270065, 0.11804293096065521, -0.12562346458435059, 0.07948525995016098, -0.05986907705664635, 0.14274820685386658, -0.13612757623195648, -0.13165122270584106, 0.13512760400772095, 0.0978371649980545, -0.04341338202357292, -0.05233365297317505, -0.027585705742239952, -0.11451171338558197, 0.13024994730949402, -0.08730486035346985, 0.01965700462460518, 0.010607733391225338, 0.05888190120458603, -0.03587726131081581, 0.09499284625053406, 0.04450042173266411, -0.09166998416185379, 0.09795057773590088, -0.10680071264505386, -0.06255964934825897, 0.058732129633426666, -0.06823652237653732, -0.12087563425302505, 0.09505431354045868, 0.09957928955554962, -0.14354979991912842, 0.10387299209833145, -0.11744586378335953, 0.15136563777923584, -0.06435663998126984, -0.020756635814905167, -0.0805298462510109, 0.09610246866941452, -0.20707838237285614, -0.056152597069740295, -1.0147359371185303, -0.11462819576263428, -0.31594952940940857, -0.04723302274942398, -0.009078449569642544, 0.06360475718975067, -0.929839015007019, 0.01790800131857395, 0.021619508042931557, -1.2565096616744995, 0.07212933152914047, 0.11723317950963974, -0.8129262924194336, -0.01334457565099001, 2.3489606380462646, -0.04478760436177254, -0.12529440224170685, -0.1319403499364853, 0.09360809624195099, 0.04557272046804428, -0.03293727710843086, 0.12990443408489227, -0.08273772150278091, -0.027904454618692398, -0.07815238833427429, 0.10213954001665115, 0.15708719193935394, 0.09206947684288025, -0.07631691545248032, 0.07078481465578079, -2.5241105556488037, 0.16463249921798706, -0.0295326579362154, 0.19431374967098236, -1.6289715766906738, -0.7922788858413696, 0.014231680892407894, -0.035048749297857285, -0.044712331146001816, 0.009215101599693298, -0.43471720814704895, -0.06682383269071579, -0.03912173584103584, -0.03185321018099785, 0.06767929345369339, -0.014719534665346146, -0.376616507768631, 0.07396724075078964, -0.08224537968635559, -0.4863567352294922, 0.04845656454563141, 0.1881817877292633, -0.7583661675453186, 0.05975592881441116, 2.017001152038574, -0.022919518873095512, 0.11528822034597397, 0.09929715842008591, 0.0840110257267952, 0.11293236166238785, 0.08387576043605804, 0.046758152544498444, 0.09635873138904572, 0.13490460813045502, 0.04271553456783295, 0.08739720284938812, -0.07383149117231369, -0.030163239687681198, 0.08290057629346848, 0.08020723611116409, -2.5431652069091797, 0.0856827050447464, -0.05345701426267624, 0.11579339951276779, -0.6404244899749756, -0.560975193977356, 0.29788464307785034, -0.07798290997743607, 0.05434456095099449, -0.07253855466842651, -0.2104892134666443, 0.07460066676139832, -0.04360448196530342, 0.074069082736969, -0.06403391063213348, -0.2040788233280182, 0.08823918551206589, -0.07381498068571091, 0.033704448491334915, -0.1934439241886139, 0.13117794692516327, -0.0704343318939209, -0.07498184591531754, -0.10728777945041656, 0.15365441143512726, -0.008939025923609734, -0.00018092812388204038, -0.02851664088666439, 0.005604398902505636, 0.042443808168172836, -0.0008473219349980354, -0.1014484167098999, 0.07568414509296417, -0.005283463280647993, -0.1859259456396103, -0.0500950962305069, -0.060965973883867264, 0.14366598427295685, -0.1335870325565338, 0.05144616588950157, -0.07223540544509888, 0.05253475904464722, -0.023815147578716278, 0.07518784701824188, 0.02607734501361847, -0.15803666412830353, -0.114597387611866, -0.05696305260062218, -0.12470898032188416, 0.13685913383960724, 0.025451304391026497, -0.04644545167684555, -0.006454736925661564, -0.07921436429023743, -0.07240906357765198, 0.07628898322582245, -0.11549872159957886, -0.0701787993311882, 0.15186792612075806, -0.01818368211388588, -0.13276994228363037, -0.09912477433681488, -0.11885017901659012, -0.08637881278991699, 0.1451845020055771, -0.06224248185753822, -0.1322704702615738, 0.15087592601776123, -0.06092912703752518, -0.00550480280071497, -0.054695673286914825, -0.08879005908966064, -0.04222030192613602, -0.09228993207216263, 0.019051020964980125, 0.09124479442834854, -0.001908123609609902, -0.009417573921382427, 0.13857264816761017, -0.09193520247936249, 0.007040646858513355, -0.04183056950569153, -0.11596871167421341, -0.007709698285907507, -0.10374627262353897, 0.05452294275164604, -0.08939176797866821, 0.0847003161907196, -0.206823468208313, -0.0710611417889595, 0.07276328653097153, 0.120600126683712, -0.1499079316854477, -0.12018436193466187, 0.06163395196199417, -0.027009200304746628, -0.05846744030714035, 0.07666738331317902, -0.0655868873000145, 0.033137090504169464, 0.02831972949206829, 0.011217521503567696, -0.1762910783290863, -0.14762724936008453, -0.22776617109775543, -0.18680411577224731, 0.10650371015071869, 0.017079981043934822, 0.000396594317862764, 0.02975752204656601, -0.17676235735416412, -0.08369525521993637, 0.04442014545202255, -0.040158770978450775, -0.03563248738646507, 0.07733933627605438, 0.03230039402842522, -0.05302128940820694, 0.030759064480662346, 0.05837344005703926, -0.05554484948515892, -0.1751183271408081, -0.1084458976984024, 0.0019026052905246615, 0.07281753420829773, 0.00638343533501029, -0.17989768087863922, 0.12589004635810852, -0.08129941672086716, -0.1010318174958229, 0.037134286016225815, -0.03383992984890938, 0.19871456921100616, -0.08312918990850449, -0.14814992249011993, -0.03574637323617935, 0.03591932728886604, -0.005008706822991371, 0.11697662621736526, -0.06866421550512314, 0.019535770639777184, -0.12429650127887726, 0.3277725875377655, 0.061018411070108414, -1.643033504486084, -0.37278786301612854, -0.07892511039972305, -0.009810907766222954, 0.04204050451517105, -0.05627569928765297, -0.08841069042682648, 0.005939919967204332, -0.11389926075935364, -0.13030309975147247, 0.12611883878707886, 0.15223412215709686, -0.007642408832907677, -0.12772256135940552, 0.057254280894994736, 0.003283848287537694, 2.5474507808685303, -0.33210787177085876, 0.001105623785406351, -0.4543969929218292, 0.12720522284507751, 0.8147222399711609, 0.04877015948295593, 0.14014580845832825, -0.02103455178439617, 0.08530601859092712, -0.4179697036743164, 0.1168983057141304, -0.10008791089057922, -0.009247936308383942, 0.08898020535707474, 0.04317405819892883, -0.42586493492126465, -0.03247907757759094, -0.0830831453204155, -0.3787904679775238, 0.08208635449409485, 0.10101804882287979, -0.8313479423522949, -0.05806458368897438, 1.9287350177764893, 0.1431792676448822, -0.12376505881547928, 0.04799673333764076, -0.0012978987069800496, 0.12849843502044678, 0.023609420284628868, 0.034714892506599426, -0.05021829158067703, 0.012020326219499111, -0.06705661863088608, 0.10110998898744583, -0.03594581410288811, -0.10348241031169891, -0.1564430445432663, 0.08368924260139465, -2.3090336322784424, 0.19256845116615295, 0.049263305962085724, 0.1267825961112976, -0.6543683409690857, -0.6233424544334412, -0.00395029503852129, -0.053426481783390045, -0.09310641884803772, 0.07819220423698425, 0.08174598217010498, -0.11600764840841293, -0.14889436960220337, 0.13992635905742645, 0.05379444360733032, -0.015712041407823563, -0.01920054852962494, 0.10018657147884369, 0.03374629095196724, 0.04100789874792099, 0.05415400117635727, -0.0489206537604332, -0.15257692337036133, 0.022933747619390488, -0.01101420447230339, -0.08280431479215622, 0.10119644552469254, -0.023510893806815147, 0.11009775102138519, -0.147340789437294, -0.0856185331940651, 0.004522260744124651, 0.08707639575004578, 0.11944615095853806, -0.09008974581956863, -0.08890560269355774, -0.017311498522758484, 0.09079642593860626, -0.035159166902303696, -0.049040909856557846, -0.0953708365559578, -0.0284554585814476, -0.010041671805083752, -0.030535537749528885, 0.15667827427387238, 0.0036001664120703936, -0.1421666294336319, 0.027405135333538055, -0.23683153092861176, -0.1478860229253769, 0.04566854238510132, -0.0075953626073896885, -0.1382114291191101, -0.02979440987110138, -0.08961964398622513, -0.02755124494433403, -0.046539872884750366, 0.14850610494613647, 0.030139395967125893, 0.09302204847335815, 0.010997731238603592, -0.0017188828205689788, -0.20648685097694397, -0.02752663381397724, -0.25443151593208313, -0.11494387686252594, -0.1385590136051178, -0.03740283474326134, 0.1285945326089859, -0.08295977860689163, 0.019001856446266174, -0.2657019793987274, 0.09501499682664871, 0.011527604423463345, 0.02588578313589096, 0.12624691426753998, 0.07535574585199356, 0.13931725919246674, 0.06684788316488266, -0.14142204821109772, -0.08665785938501358, -0.11029607802629471, -0.15745466947555542, -0.1096649244427681, -0.012989955022931099, -0.16518257558345795, -0.163965106010437, 0.13219265639781952, -0.15837933123111725, -0.044337738305330276, -0.14232392609119415, -0.1563144028186798, 0.08772364258766174, 0.05565212666988373, 0.13274358212947845, -0.20468531548976898, 0.004402251448482275, -0.012252315878868103, -0.10582325607538223, 0.14737823605537415, -0.07316197454929352, -0.04597361385822296, 0.0777837336063385, -0.14502781629562378, 0.10323040932416916, -0.3258872330188751, 0.14374326169490814, 0.013803370296955109, -0.15669067203998566, 0.12579010426998138, 0.005796994548290968, -0.05810575932264328, -0.008269031532108784, -0.1537637710571289, -0.19414275884628296, -0.12282238155603409, -0.06718915700912476, 0.016520043835043907, -0.11210907250642776, -0.13113521039485931, 0.09751329571008682, -0.3598606288433075, -0.08509358018636703, -0.38047927618026733, 0.054530464112758636, 0.09687143564224243, -0.06116008013486862, 0.07205274701118469, -0.25223398208618164, -0.14708669483661652, -0.1374133825302124, -0.10917860269546509, 0.13658304512500763, 0.026908550411462784, 0.04168993979692459, -0.02047722227871418, -0.015506005845963955, -0.11221224814653397, 0.09588753432035446, -0.04145672544836998, 0.15368594229221344, -0.41129475831985474, -0.21626299619674683, -0.02985643967986107, -0.17697305977344513, -0.02903888002038002, 0.09575322270393372, -0.027502959594130516, -0.05976109579205513, 0.10225234925746918, 0.10672778636217117, 0.03868435323238373, -0.062268320471048355, 0.019471345469355583, -0.13988904654979706, -0.0789182186126709, -0.1436108499765396, -0.008998267352581024, 0.1261235624551773, 0.05072107911109924, -0.22577325999736786, 0.15246650576591492, 0.017415562644600868, 0.06424592435359955, -0.09424201399087906, -0.46651503443717957, -0.37906888127326965, 0.15123504400253296, 0.16211768984794617, 0.03352348133921623, -0.2994963824748993, 0.1345018893480301, -0.37646904587745667, 0.09881043434143066, 0.03952677547931671, 0.05648462846875191, -0.507817268371582, -0.0730154812335968, -0.040370456874370575, -0.5322316288948059, 0.023236608132719994, 0.15495674312114716, 0.2131975293159485, -0.11741632223129272, -1.310062050819397, -0.2782422602176666, 0.051756057888269424, -0.06764644384384155, -0.02357158623635769, -0.06071208417415619, -0.018373243510723114, 0.2876790761947632, -0.08161274343729019, 0.15143433213233948, 0.21877548098564148, 0.1454070508480072, -0.04796979948878288, -0.09528948366641998, 0.030028564855456352, 0.007312519941478968, 2.5574429035186768, -0.2936166226863861, 0.07262860983610153, -0.15679654479026794, -0.49962466955184937, 0.6942379474639893, -0.13776400685310364, -0.14235728979110718, 0.060942210257053375, 0.08836664259433746, -0.153379887342453, -0.07648172974586487, -0.22598835825920105, -0.037669748067855835, 0.12166859954595566, -0.153121680021286, -0.2981719374656677, 0.0275750569999218, -0.09867721050977707, -0.012345620431005955, -0.14009910821914673, -0.003151199547573924, -0.11145013570785522, 0.0940612331032753, 0.02581370621919632, -0.09770965576171875, -0.011756558902561665, 0.12351906299591064, 0.009741110727190971, 0.07851104438304901, -0.18504226207733154, -0.01989274099469185, -0.05730072408914566, 0.12077677249908447, 0.02143532782793045, 0.12442599982023239, 0.037192896008491516, -0.03262785077095032, -0.03057578019797802, 0.1122322529554367, -0.02571345865726471, -0.05344162881374359, -0.1351732760667801, -0.22027912735939026, -0.007764868438243866, -0.09020597487688065, -0.004486354533582926, 0.10813014209270477, 0.04458247125148773, -0.045042186975479126, -0.056146979331970215, 0.1249345988035202, -0.030111273750662804, 0.06759148091077805, -0.06110311672091484, 0.0652758851647377, -0.1369980126619339, 0.08135048300027847, 0.14144977927207947, -0.10654463618993759, 0.08576694130897522, -0.05978301540017128, -0.06069806218147278, -0.14024735987186432, 0.12627416849136353, 0.06951447576284409, -0.15702378749847412, 0.10453768819570541, -0.015367016196250916, -0.11844173073768616, 0.13025009632110596, -0.12754717469215393, 0.014682546257972717, 0.05922942981123924, -0.08868906646966934, -0.14301803708076477, -0.10889145731925964, -0.0013974761823192239, -0.10782362520694733, -0.07764142751693726, -0.029967231675982475, -0.05029866099357605, -0.07564228028059006, -0.1481749415397644, 0.024093788117170334, 0.09061098843812943, -0.038527268916368484, 0.11263708025217056, -0.20391599833965302, 0.10895281285047531, -0.18665333092212677, 0.1272684782743454, -0.015307798981666565, -0.0709051862359047, 0.027234122157096863, 0.007011022884398699, 0.04635487496852875, 0.024495357647538185, 0.11344713717699051, -0.2194187343120575, -0.04507877305150032, -0.024748560041189194, -0.21349768340587616, 0.030567165464162827, -0.12196826934814453, -0.199503093957901, -0.053425781428813934, 0.05296361446380615, 0.1298837959766388, -0.15784691274166107, -0.1778763383626938, -0.07458802312612534, -0.15777535736560822, -0.0829063206911087, 0.02336270920932293, 0.1485579013824463, 0.03565588593482971, 0.07105574756860733, 0.08264928311109543, -0.01733456924557686, -0.21444234251976013, -0.22095198929309845, -0.012265132740139961, -0.1632269322872162, 0.05799218639731407, -0.0025373969692736864, -0.1129484698176384, -0.1259440928697586, -0.27002355456352234, 0.10697165131568909, -0.8264048099517822, 0.13761860132217407, -0.3954833745956421, -0.030768657103180885, -0.13517878949642181, 0.08804837614297867, -0.8784725069999695, -0.1457597315311432, -0.11070994287729263, -0.829152524471283, -0.08216014504432678, -0.1829240322113037, -1.0826096534729004, -0.003108386415988207, 1.7348277568817139, -0.05259035900235176, 0.005393614526838064, -0.10574456304311752, -0.11586994677782059, 0.11978589743375778, 0.06570069491863251, 0.0358479842543602, 0.15583091974258423, -0.002816609339788556, 0.15843282639980316, -0.10390017181634903, 0.080345019698143, 0.07004478573799133, 0.09153924882411957, -0.14368045330047607, -2.245246171951294, 0.07523979246616364, 0.04897908493876457, 0.0355108417570591, -1.20917809009552, -0.7516318559646606, -0.0019833187106996775, -0.10727140307426453, -0.03927255794405937, 0.06330599635839462, -1.0853835344314575, 0.099271260201931, -0.31236737966537476, -0.07752961665391922, 0.050547387450933456, 0.03579479083418846, -0.7098643183708191, 0.11367503553628922, -0.027681192383170128, -1.3503397703170776, 0.0949091985821724, -0.05448317900300026, -0.7693970203399658, -0.12843146920204163, 2.0548095703125, -0.19588740170001984, -0.1382298767566681, -0.10630397498607635, -0.04441963508725166, -0.10612110793590546, -0.1464846432209015, 0.1272650808095932, -0.002974108560010791, 0.0760258361697197, 0.028347888961434364, 0.15439464151859283, -0.10004103928804398, -0.12252016365528107, -0.0910390242934227, -0.0750693753361702, -2.7273993492126465, 0.13949763774871826, 0.0653042197227478, 0.038774967193603516, -1.3530291318893433, -0.7742984294891357, 0.039436984807252884, 0.13105833530426025, 0.7931957244873047, 0.12231354415416718, -0.04034079238772392, 1.761454701423645, 0.14116859436035156, -0.06200278177857399, 0.67691969871521, 0.9041203856468201, -0.023493237793445587, 1.3134266138076782, 0.07951202988624573, 0.057840537279844284, 0.030433908104896545, -0.017018290236592293, 0.08990028500556946, 1.069088339805603, 0.01895281672477722, -0.03775603696703911, 0.04646219685673714, -0.11091876029968262, 0.008625572547316551, 1.1559572219848633, 0.10625174641609192, 2.347756862640381, 0.9022930860519409, -0.08145663887262344, 0.05222199484705925, 0.05041663348674774, -0.7320753931999207, 1.078078269958496, -0.006797499489039183, -0.05643431097269058, -0.13759876787662506, -0.25882065296173096, -0.5103960633277893, -0.011307106353342533, -0.0907471552491188, -0.029660630971193314, 1.1742782592773438, 1.5552167892456055], "edge_parent_sink_net": [1, 1, 1, 1, 1, 1, 1, 1, 1, 1, 1, 1, 1, 1, 1, 1, 1, 1, 1, 1, 1, 1, 1, 1, 1, 1, 1, 1, 1, 1, 1, 1, 1, 1, 1, 1, 1, 1, 1, 1, 2, 3, 4, 5, 6, 7, 8, 9, 10, 11, 12, 13, 14, 15, 16, 17, 18, 19, 20, 21, 22, 23, 24, 25, 26, 27, 28, 29, 30, 31, 32, 33, 34, 35, 36, 37, 38, 39, 40, 41, 2, 3, 4, 5, 6, 7, 8, 9, 10, 11, 12, 13, 14, 15, 16, 17, 18, 19, 20, 21, 22, 23, 24, 25, 26, 27, 28, 29, 30, 31, 32, 33, 34, 35, 36, 37, 38, 39, 40, 41, 2, 3, 4, 5, 6, 7, 8, 9, 10, 11, 12, 13, 14, 15, 16, 17, 18, 19, 20, 21, 22, 23, 24, 25, 26, 27, 28, 29, 30, 31, 32, 33, 34, 35, 36, 37, 38, 39, 40, 41, 2, 3, 4, 5, 6, 7, 8, 9, 10, 11, 12, 13, 14, 15, 16, 17, 18, 19, 20, 21, 22, 23, 24, 25, 26, 27, 28, 29, 30, 31, 32, 33, 34, 35, 36, 37, 38, 39, 40, 41, 2, 3, 4, 5, 6, 7, 8, 9, 10, 11, 12, 13, 14, 15, 16, 17, 18, 19, 20, 21, 22, 23, 24, 25, 26, 27, 28, 29, 30, 31, 32, 33, 34, 35, 36, 37, 38, 39, 40, 41, 2, 3, 4, 5, 6, 7, 8, 9, 10, 11, 12, 13, 14, 15, 16, 17, 18, 19, 20, 21, 22, 23, 24, 25, 26, 27, 28, 29, 30, 31, 32, 33, 34, 35, 36, 37, 38, 39, 40, 41, 2, 3, 4, 5, 6, 7, 8, 9, 10, 11, 12, 13, 14, 15, 16, 17, 18, 19, 20, 21, 22, 23, 24, 25, 26, 27, 28, 29, 30, 31, 32, 33, 34, 35, 36, 37, 38, 39, 40, 41, 2, 3, 4, 5, 6, 7, 8, 9, 10, 11, 12, 13, 14, 15, 16, 17, 18, 19, 20, 21, 22, 23, 24, 25, 26, 27, 28, 29, 30, 31, 32, 33, 34, 35, 36, 37, 38, 39, 40, 41, 2, 3, 4, 5, 6, 7, 8, 9, 10, 11, 12, 13, 14, 15, 16, 17, 18, 19, 20, 21, 22, 23, 24, 25, 26, 27, 28, 29, 30, 31, 32, 33, 34, 35, 36, 37, 38, 39, 40, 41, 2, 3, 4, 5, 6, 7, 8, 9, 10, 11, 12, 13, 14, 15, 16, 17, 18, 19, 20, 21, 22, 23, 24, 25, 26, 27, 28, 29, 30, 31, 32, 33, 34, 35, 36, 37, 38, 39, 40, 41, 2, 3, 4, 5, 6, 7, 8, 9, 10, 11, 12, 13, 14, 15, 16, 17, 18, 19, 20, 21, 22, 23, 24, 25, 26, 27, 28, 29, 30, 31, 32, 33, 34, 35, 36, 37, 38, 39, 40, 41, 2, 3, 4, 5, 6, 7, 8, 9, 10, 11, 12, 13, 14, 15, 16, 17, 18, 19, 20, 21, 22, 23, 24, 25, 26, 27, 28, 29, 30, 31, 32, 33, 34, 35, 36, 37, 38, 39, 40, 41, 2, 3, 4, 5, 6, 7, 8, 9, 10, 11, 12, 13, 14, 15, 16, 17, 18, 19, 20, 21, 22, 23, 24, 25, 26, 27, 28, 29, 30, 31, 32, 33, 34, 35, 36, 37, 38, 39, 40, 41, 2, 3, 4, 5, 6, 7, 8, 9, 10, 11, 12, 13, 14, 15, 16, 17, 18, 19, 20, 21, 22, 23, 24, 25, 26, 27, 28, 29, 30, 31, 32, 33, 34, 35, 36, 37, 38, 39, 40, 41, 2, 3, 4, 5, 6, 7, 8, 9, 10, 11, 12, 13, 14, 15, 16, 17, 18, 19, 20, 21, 22, 23, 24, 25, 26, 27, 28, 29, 30, 31, 32, 33, 34, 35, 36, 37, 38, 39, 40, 41, 2, 3, 4, 5, 6, 7, 8, 9, 10, 11, 12, 13, 14, 15, 16, 17, 18, 19, 20, 21, 22, 23, 24, 25, 26, 27, 28, 29, 30, 31, 32, 33, 34, 35, 36, 37, 38, 39, 40, 41, 2, 3, 4, 5, 6, 7, 8, 9, 10, 11, 12, 13, 14, 15, 16, 17, 18, 19, 20, 21, 22, 23, 24, 25, 26, 27, 28, 29, 30, 31, 32, 33, 34, 35, 36, 37, 38, 39, 40, 41, 2, 3, 4, 5, 6, 7, 8, 9, 10, 11, 12, 13, 14, 15, 16, 17, 18, 19, 20, 21, 22, 23, 24, 25, 26, 27, 28, 29, 30, 31, 32, 33, 34, 35, 36, 37, 38, 39, 40, 41, 2, 3, 4, 5, 6, 7, 8, 9, 10, 11, 12, 13, 14, 15, 16, 17, 18, 19, 20, 21, 22, 23, 24, 25, 26, 27, 28, 29, 30, 31, 32, 33, 34, 35, 36, 37, 38, 39, 40, 41, 2, 3, 4, 5, 6, 7, 8, 9, 10, 11, 12, 13, 14, 15, 16, 17, 18, 19, 20, 21, 22, 23, 24, 25, 26, 27, 28, 29, 30, 31, 32, 33, 34, 35, 36, 37, 38, 39, 40, 41, 2, 3, 4, 5, 6, 7, 8, 9, 10, 11, 12, 13, 14, 15, 16, 17, 18, 19, 20, 21, 22, 23, 24, 25, 26, 27, 28, 29, 30, 31, 32, 33, 34, 35, 36, 37, 38, 39, 40, 41, 2, 3, 4, 5, 6, 7, 8, 9, 10, 11, 12, 13, 14, 15, 16, 17, 18, 19, 20, 21, 22, 23, 24, 25, 26, 27, 28, 29, 30, 31, 32, 33, 34, 35, 36, 37, 38, 39, 40, 41, 2, 3, 4, 5, 6, 7, 8, 9, 10, 11, 12, 13, 14, 15, 16, 17, 18, 19, 20, 21, 22, 23, 24, 25, 26, 27, 28, 29, 30, 31, 32, 33, 34, 35, 36, 37, 38, 39, 40, 41, 2, 3, 4, 5, 6, 7, 8, 9, 10, 11, 12, 13, 14, 15, 16, 17, 18, 19, 20, 21, 22, 23, 24, 25, 26, 27, 28, 29, 30, 31, 32, 33, 34, 35, 36, 37, 38, 39, 40, 41, 2, 3, 4, 5, 6, 7, 8, 9, 10, 11, 12, 13, 14, 15, 16, 17, 18, 19, 20, 21, 22, 23, 24, 25, 26, 27, 28, 29, 30, 31, 32, 33, 34, 35, 36, 37, 38, 39, 40, 41, 2, 3, 4, 5, 6, 7, 8, 9, 10, 11, 12, 13, 14, 15, 16, 17, 18, 19, 20, 21, 22, 23, 24, 25, 26, 27, 28, 29, 30, 31, 32, 33, 34, 35, 36, 37, 38, 39, 40, 41, 2, 3, 4, 5, 6, 7, 8, 9, 10, 11, 12, 13, 14, 15, 16, 17, 18, 19, 20, 21, 22, 23, 24, 25, 26, 27, 28, 29, 30, 31, 32, 33, 34, 35, 36, 37, 38, 39, 40, 41, 2, 3, 4, 5, 6, 7, 8, 9, 10, 11, 12, 13, 14, 15, 16, 17, 18, 19, 20, 21, 22, 23, 24, 25, 26, 27, 28, 29, 30, 31, 32, 33, 34, 35, 36, 37, 38, 39, 40, 41, 2, 3, 4, 5, 6, 7, 8, 9, 10, 11, 12, 13, 14, 15, 16, 17, 18, 19, 20, 21, 22, 23, 24, 25, 26, 27, 28, 29, 30, 31, 32, 33, 34, 35, 36, 37, 38, 39, 40, 41, 2, 3, 4, 5, 6, 7, 8, 9, 10, 11, 12, 13, 14, 15, 16, 17, 18, 19, 20, 21, 22, 23, 24, 25, 26, 27, 28, 29, 30, 31, 32, 33, 34, 35, 36, 37, 38, 39, 40, 41, 2, 3, 4, 5, 6, 7, 8, 9, 10, 11, 12, 13, 14, 15, 16, 17, 18, 19, 20, 21, 22, 23, 24, 25, 26, 27, 28, 29, 30, 31, 32, 33, 34, 35, 36, 37, 38, 39, 40, 41, 2, 3, 4, 5, 6, 7, 8, 9, 10, 11, 12, 13, 14, 15, 16, 17, 18, 19, 20, 21, 22, 23, 24, 25, 26, 27, 28, 29, 30, 31, 32, 33, 34, 35, 36, 37, 38, 39, 40, 41, 2, 3, 4, 5, 6, 7, 8, 9, 10, 11, 12, 13, 14, 15, 16, 17, 18, 19, 20, 21, 22, 23, 24, 25, 26, 27, 28, 29, 30, 31, 32, 33, 34, 35, 36, 37, 38, 39, 40, 41, 2, 3, 4, 5, 6, 7, 8, 9, 10, 11, 12, 13, 14, 15, 16, 17, 18, 19, 20, 21, 22, 23, 24, 25, 26, 27, 28, 29, 30, 31, 32, 33, 34, 35, 36, 37, 38, 39, 40, 41, 2, 3, 4, 5, 6, 7, 8, 9, 10, 11, 12, 13, 14, 15, 16, 17, 18, 19, 20, 21, 22, 23, 24, 25, 26, 27, 28, 29, 30, 31, 32, 33, 34, 35, 36, 37, 38, 39, 40, 41, 2, 3, 4, 5, 6, 7, 8, 9, 10, 11, 12, 13, 14, 15, 16, 17, 18, 19, 20, 21, 22, 23, 24, 25, 26, 27, 28, 29, 30, 31, 32, 33, 34, 35, 36, 37, 38, 39, 40, 41, 2, 3, 4, 5, 6, 7, 8, 9, 10, 11, 12, 13, 14, 15, 16, 17, 18, 19, 20, 21, 22, 23, 24, 25, 26, 27, 28, 29, 30, 31, 32, 33, 34, 35, 36, 37, 38, 39, 40, 41, 2, 3, 4, 5, 6, 7, 8, 9, 10, 11, 12, 13, 14, 15, 16, 17, 18, 19, 20, 21, 22, 23, 24, 25, 26, 27, 28, 29, 30, 31, 32, 33, 34, 35, 36, 37, 38, 39, 40, 41, 2, 3, 4, 5, 6, 7, 8, 9, 10, 11, 12, 13, 14, 15, 16, 17, 18, 19, 20, 21, 22, 23, 24, 25, 26, 27, 28, 29, 30, 31, 32, 33, 34, 35, 36, 37, 38, 39, 40, 41, 2, 3, 4, 5, 6, 7, 8, 9, 10, 11, 12, 13, 14, 15, 16, 17, 18, 19, 20, 21, 22, 23, 24, 25, 26, 27, 28, 29, 30, 31, 32, 33, 34, 35, 36, 37, 38, 39, 40, 41, 42, 43, 44, 45, 46, 47, 48, 49, 50, 51, 52, 53, 54, 55, 56, 57, 58, 59, 60, 61, 62, 63, 64, 65, 66, 67, 68, 69, 70, 71, 72, 73, 74, 75, 76, 77, 78, 79, 80, 81], "first_edge_sink_net": [1, 1, 2, 3, 4, 5, 6, 7, 8, 9, 10, 11, 12, 13, 14, 15, 16, 17, 18, 19, 20, 21, 22, 23, 24, 25, 26, 27, 28, 29, 30, 31, 32, 33, 34, 35, 36, 37, 38, 39, 40, 41, 81, 121, 161, 201, 241, 281, 321, 361, 401, 441, 481, 521, 561, 601, 641, 681, 721, 761, 801, 841, 881, 921, 961, 1001, 1041, 1081, 1121, 1161, 1201, 1241, 1281, 1321, 1361, 1401, 1441, 1481, 1521, 1561, 1601, 1641], "N_Neurons_source_net": 82, "N_Edges_source_net": 1680, "input_ids_source_net": [1], "output_ids_source_net": [82], "bias_source_net": [0, 0.5586453676223755, 0.23187245428562164, 0.20574221014976501, -0.6774997711181641, 0.20436285436153412, 0.7929300665855408, -0.011528176255524158, -0.8275575637817383, -0.9245575666427612, 0.6142452955245972, 0.23685528337955475, 0.6828853487968445, 0.2050822675228119, -0.8312108516693115, 0.45896273851394653, 0.5620068311691284, -1.0759021043777466, -0.8847404718399048, -0.8065592050552368, -0.27951645851135254, 0.3506665825843811, -0.012594342231750488, -0.859539270401001, -0.903610348701477, -0.8429747819900513, -0.33069908618927, -0.9497606754302979, -0.9793860912322998, 0.46367141604423523, -0.16053365170955658, 0.6785657405853271, 0.18627607822418213, -0.40577438473701477, 0.46626976132392883, -0.9867813587188721, -0.9218125343322754, -0.28825876116752625, 0.5689848065376282, 0.2817428410053253, 0.7012800574302673, -0.1364978402853012, 0.17264151573181152, 0.031489863991737366, -0.22677725553512573, 0.08128786832094193, -0.1416660100221634, 0.1493963897228241, -0.11924762278795242, 0.16964712738990784, -0.24193426966667175, 0.05297775939106941, -0.3442830741405487, -0.11360447108745575, -0.05338618531823158, -0.35148724913597107, -0.2001361846923828, -0.14046725630760193, -0.1205570250749588, -0.004237382207065821, -0.11521092802286148, 0.06002097576856613, -0.10591160506010056, 0.06472007930278778, -0.10484425723552704, -0.1252160668373108, -0.07012228667736053, 0.04539124667644501, -0.006042916793376207, -0.014653505757451057, -0.04157678410410881, -0.1322745978832245, -0.1301640272140503, 0.07446637004613876, 0.00583976786583662, -0.10071377456188202, -0.07830764353275299, 0.0795077234506607, 0.09340490400791168, -0.037207428365945816, -0.08187210559844971, 0.01612432673573494], "edge_weight_source_net": [-0.09680671989917755, 0.2515261769294739, 0.6417434215545654, -0.10828769207000732, 0.695635974407196, 0.22697681188583374, 0.6070315837860107, -0.6837747097015381, 1.2935768365859985, 0.6977660059928894, 0.7107918858528137, -1.2024359703063965, -1.854932188987732, 0.5603115558624268, -0.23384420573711395, -0.9725855588912964, 1.513663649559021, -0.5184344053268433, -0.387797474861145, 0.24844026565551758, -0.8746917247772217, -0.32099449634552, 0.7264194488525391, -0.7283186912536621, -0.6144216060638428, -0.250651478767395, 1.3500694036483765, 0.7299920320510864, -1.1121357679367065, 0.05347326770424843, -0.47519248723983765, 0.9296641945838928, 0.444754958152771, -1.1397358179092407, 1.3621348142623901, 0.48042619228363037, 1.3273836374282837, -0.9657607674598694, -0.5018855333328247, 0.8271170854568481, -0.11455842107534409, 0.15143993496894836, -0.11711429059505463, 0.11250101029872894, 0.0373058021068573, 0.016935676336288452, 0.05903545767068863, -0.08402174711227417, -0.0837704986333847, -0.06027500331401825, -0.028647713363170624, -0.03121226094663143, 0.09370523691177368, 0.09305547177791595, 0.015726685523986816, -0.08434266597032547, -0.0307488851249218, -0.0191934984177351, -0.07591865956783295, -0.010860229842364788, 0.1056738868355751, 0.15527290105819702, -0.0656839981675148, -0.044568125158548355, 0.08164067566394806, -0.1412256807088852, 0.05350632220506668, 0.06541583687067032, 0.14388996362686157, 0.11131338030099869, 0.09131704270839691, 0.1304377168416977, -0.06164861470460892, 0.10206679999828339, -0.12961649894714355, -0.1427479386329651, -0.0036884346045553684, -0.05406797304749489, -0.09149235486984253, -0.14494380354881287, 0.17860496044158936, -0.09774813055992126, 0.08012086153030396, -0.007653831038624048, -0.06524565070867538, 0.08801344782114029, -0.19026225805282593, 0.11159995198249817, -0.713322639465332, 0.12558668851852417, 0.1173010766506195, -0.1957351714372635, -0.46304771304130554, -0.0946103110909462, 0.049899954348802567, -0.7326508164405823, -1.2564300298690796, -0.04188863933086395, -0.07090882211923599, -0.1181832030415535, 0.793484628200531, -0.04381687566637993, -0.07302823662757874, 0.021359847858548164, 0.018814226612448692, 0.04918849468231201, -1.3053343296051025, 0.11501704156398773, 0.8760792016983032, 0.0463387668132782, 0.05015207827091217, -0.0037366393953561783, -0.17969152331352234, 0.7793653607368469, -0.7845178842544556, 0.15460114181041718, -2.633105754852295, -0.19551818072795868, -0.015761705115437508, 0.16916756331920624, -0.132077157497406, -0.0785515233874321, -0.1114325001835823, -0.031068727374076843, 0.038464367389678955, -0.08730684220790863, -0.03734523057937622, -0.019465051591396332, 0.09727383404970169, -0.05010669678449631, -0.1699565201997757, -0.024873986840248108, 0.055267639458179474, -0.1562904417514801, -0.07524322718381882, -0.06711603701114655, -0.0690511167049408, -0.004608568735420704, -0.12195739895105362, -0.14907041192054749, 0.05972026288509369, 0.07030674070119858, 0.11750860512256622, -0.051185112446546555, -0.020827921107411385, -0.0933123379945755, 0.08626961708068848, -0.1370677947998047, -0.049158863723278046, -0.1214544028043747, 0.02688746713101864, 0.008045700378715992, -0.10636050254106522, -0.05712150037288666, -0.1118396669626236, -0.13698068261146545, 0.0594954788684845, -0.055474452674388885, -0.18604601919651031, -0.18663842976093292, 0.07210348546504974, -0.12516753375530243, 0.050059255212545395, -0.014381741173565388, 0.0634484514594078, -0.1308886557817459, -0.12793521583080292, -0.13339029252529144, -0.18491515517234802, 0.02468770556151867, -0.1536940336227417, -0.03449271246790886, -0.20667104423046112, 0.12044158577919006, -0.016886740922927856, -0.04230139032006264, 0.1261378675699234, 0.1535835862159729, -0.1526336371898651, 0.11548614501953125, 0.005272821057587862, -0.06616725772619247, -0.12545990943908691, 0.09899073839187622, -0.15736238658428192, 0.06797538697719574, -0.021519996225833893, 0.13579082489013672, 0.08919420093297958, -0.1139780804514885, -0.04966701567173004, -0.03136653080582619, 0.07939104735851288, -0.006437155418097973, -0.16876715421676636, 0.13799411058425903, 0.014075166545808315, -0.1372683048248291, -0.06926722824573517, -0.2128455936908722, -0.13872569799423218, 0.09987826645374298, -0.14641976356506348, 0.07084588706493378, -0.007628743536770344, 0.0902060866355896, -0.02333942800760269, -0.04419119283556938, 0.03250633180141449, -0.1189294382929802, -0.0673980712890625, -0.07379404455423355, -4.7347792133223265e-05, 0.10776561498641968, 0.1260625422000885, 0.09030254930257797, -0.10709371417760849, 0.037564367055892944, -0.10179664194583893, 0.047158610075712204, 0.1093626543879509, -0.038650669157505035, -0.08771868795156479, -0.03754840046167374, 0.01179174892604351, 0.13945075869560242, 0.09103870391845703, -0.015085605904459953, -0.09883981943130493, 0.09667742252349854, -0.110309898853302, -0.09357032179832458, 0.14047276973724365, 0.04671832174062729, 0.15361997485160828, -0.027323691174387932, -0.1226227879524231, 0.08950738608837128, -0.045465923845767975, -0.05360516533255577, 0.0762142613530159, 0.06065746024250984, -0.12813441455364227, -0.005575221497565508, -0.15463660657405853, 0.11759664863348007, -0.07866649329662323, 0.03078978694975376, 0.08979441225528717, -0.15301434695720673, -0.1294105052947998, -0.03291909769177437, -0.1238667294383049, 0.060657914727926254, -0.050397295504808426, -0.1235002875328064, -0.11439234018325806, -0.03417061269283295, 0.11869051307439804, -0.09798237681388855, 0.12276898324489594, -0.1125585213303566, 0.08369474112987518, -0.14361509680747986, -0.07873070985078812, -0.07523108273744583, -0.039349786937236786, -0.12253542989492416, -0.0030603411141783, 0.12836545705795288, 0.15770888328552246, -0.06675471365451813, -0.06113617867231369, 0.09574969857931137, 0.11991342902183533, -0.12944819033145905, -0.005510665010660887, 0.08173474669456482, 0.09005998820066452, 0.05666797608137131, -0.140328511595726, 0.13428907096385956, -0.10781960934400558, 0.15310636162757874, -0.08532615005970001, -0.01609240658581257, 0.0034495091531425714, -0.051051948219537735, 0.0060873390175402164, -0.031723905354738235, 0.04987111687660217, -0.14497394859790802, -0.11787164956331253, -0.13124321401119232, -0.12480365484952927, 0.10580343008041382, -0.11566910892724991, -0.0427185483276844, 0.016443463042378426, 0.06058359146118164, -0.07337892055511475, 0.02017076313495636, 0.0937584713101387, -0.0826965793967247, 0.09019846469163895, -0.04762771353125572, -0.010416948236525059, -0.0735812559723854, -0.15165574848651886, 0.0006003293092362583, 0.010537353344261646, -0.13633757829666138, -0.00888922717422247, 0.07228337973356247, -0.0013636804651468992, -0.08379441499710083, -0.13690407574176788, 0.028767365962266922, 0.010890481993556023, 0.10198183357715607, 0.06027202308177948, 0.12044239789247513, -0.06901423633098602, 0.0985928624868393, -0.121061310172081, 0.026168080046772957, 0.07625488191843033, -0.03484754264354706, 0.016736162826418877, -0.012731598690152168, 0.0727580264210701, -0.14482128620147705, -0.02016201615333557, 0.12174604833126068, 0.14815419912338257, -0.1251845508813858, 0.14149075746536255, 0.014411126263439655, 0.11049024015665054, -0.10128678381443024, 0.00569313857704401, 0.0016568334540352225, -0.118466816842556, -0.012158486992120743, -0.08468297868967056, -0.12824967503547668, -0.039156097918748856, -0.019537976011633873, -0.1129399985074997, 0.11454880237579346, -0.09959229081869125, 0.05863586813211441, 0.15011806786060333, -0.11632084101438522, -0.13048045337200165, -0.11687491834163666, -0.13385775685310364, -0.032783180475234985, -0.07297446578741074, -0.06615331023931503, 0.08514149487018585, 0.1475459635257721, 0.13204945623874664, 0.1339116394519806, 0.014232202433049679, 0.11134302616119385, 0.1096184179186821, 0.06389765441417694, -0.5150375962257385, 0.1571027636528015, 0.12536798417568207, -0.5637784600257874, -0.20002014935016632, -0.06531643122434616, -0.06894026696681976, -1.0331088304519653, -0.7490280270576477, -0.0440504290163517, -0.0720168948173523, 0.15691344439983368, 0.5582258701324463, 0.11522939056158066, 0.05262571573257446, 0.007767167873680592, -0.06771806627511978, 0.12224026024341583, -0.7723989486694336, -0.04307553917169571, 0.7020651698112488, -0.025622950866818428, 0.02961975894868374, 0.25040292739868164, -0.2140357792377472, 0.5629423260688782, -0.5253796577453613, 0.10908424109220505, -0.8191636204719543, -0.44924142956733704, -0.11577397584915161, 0.09459938108921051, -0.030919067561626434, 0.037872593849897385, 0.06536970287561417, 0.0262872613966465, -0.20242229104042053, -0.24335044622421265, -0.049140091985464096, -0.12183919548988342, 0.01728423871099949, 0.046228982508182526, 0.04879340901970863, -0.03187975287437439, -0.20681898295879364, -0.06490465998649597, -0.16293594241142273, -0.11940766870975494, 0.021331166848540306, 0.07624161243438721, 0.028340425342321396, 0.039823979139328, -0.08528701961040497, 0.03197653591632843, 0.10695142298936844, 0.07663685083389282, 0.10505570471286774, -0.0883166566491127, -0.13658221065998077, -0.1452210396528244, 0.035795725882053375, -0.2128840982913971, -0.06460751593112946, -0.14439499378204346, -0.22379644215106964, -0.13885478675365448, -0.033844053745269775, 0.05333012714982033, -0.07423889636993408, 0.06311269104480743, 0.0021054844837635756, 0.0038661938160657883, -0.044320084154605865, 0.02692057564854622, -0.15312938392162323, -0.04990745708346367, -0.1879325807094574, -0.13197335600852966, -0.09133832901716232, -0.08214035630226135, -0.02977011539041996, -0.09452015161514282, -0.12607313692569733, -0.012170547619462013, -0.1682213395833969, 0.15089881420135498, -0.017814945429563522, -0.2504500448703766, 0.15168997645378113, -0.04112568497657776, 0.13057613372802734, -0.03305409476161003, -0.20235292613506317, -0.10706464946269989, -0.06774909049272537, -0.012900124303996563, -0.035895396023988724, -0.09477604925632477, 0.046974606812000275, 0.019786739721894264, -0.09874033182859421, 0.06965312361717224, -0.09198621660470963, -0.007577874697744846, 0.0447252057492733, -0.14347036182880402, 0.0871473103761673, -0.02389802597463131, -0.17888721823692322, -0.07108784466981888, -0.13547538220882416, 0.04158879444003105, -0.2607230842113495, -0.17543701827526093, -0.29068154096603394, 0.14606453478336334, -0.399206280708313, -0.19344639778137207, -0.4416283071041107, 0.13429324328899384, -0.21369467675685883, -0.45039260387420654, -0.3556077182292938, -0.09151983261108398, -0.3001120090484619, -0.13480634987354279, -0.3462837338447571, -0.028547024354338646, -0.16260436177253723, 0.15095730125904083, -0.053779006004333496, -0.05576891452074051, -0.08515357226133347, -0.10105796158313751, 0.02520148456096649, 0.11138132959604263, 0.14908292889595032, 0.08081551641225815, -0.3328709602355957, 0.013065483421087265, -0.13161598145961761, -0.061236925423145294, -0.3081991672515869, -0.4225086569786072, -0.31947505474090576, -0.04258329048752785, -0.2618895471096039, -0.011828032322227955, -0.34058886766433716, -0.07964852452278137, -0.2747024893760681, -0.2074076384305954, -0.08600722998380661, 0.010312243364751339, -0.08100157231092453, -0.03866910561919212, 0.08818334341049194, -0.07900369167327881, 0.021456599235534668, 0.008638860657811165, -0.06891075521707535, 0.12183797359466553, -0.04398082196712494, -0.06594280898571014, 0.13136669993400574, 0.01612386479973793, -0.10815642029047012, 0.007561585865914822, -0.047691553831100464, 0.10832096636295319, -0.07096384465694427, -0.14389778673648834, 0.02951871044933796, -0.04668151214718819, 0.1502179205417633, -0.05567093938589096, -0.102921262383461, -0.06209874153137207, 0.09012030065059662, 0.14680367708206177, 0.15101297199726105, 0.0011499933898448944, 0.042228519916534424, -0.07119754701852798, 0.10526349395513535, 0.039289433509111404, 0.09141699224710464, 0.02631794661283493, 0.1578357070684433, -0.06861032545566559, -0.05071762949228287, -0.12836094200611115, -0.09309695661067963, 0.08456271886825562, 0.20937927067279816, -0.11764026433229446, 0.25703397393226624, 0.08800546079874039, 0.17854173481464386, 0.02732088230550289, -1.1820601224899292, 0.22458712756633759, 0.007665157783776522, -0.529360294342041, -0.15320517122745514, -0.15340378880500793, -0.023073041811585426, -1.2871586084365845, -1.5537457466125488, 0.04565149173140526, 0.12274662405252457, -0.017930150032043457, 0.7036672234535217, -0.1471358835697174, -0.10083553194999695, 0.08531216531991959, -0.10702210664749146, 0.017344634979963303, -1.4308021068572998, 0.1495286524295807, 0.8239123225212097, -0.17586980760097504, 0.05544106662273407, 0.07152747362852097, -0.3756197392940521, 0.899761974811554, -1.095336675643921, 0.1406649947166443, -1.194983959197998, -0.47506779432296753, -0.16067595779895782, 0.12501773238182068, -0.25756826996803284, -0.21618150174617767, -0.3264934718608856, -0.06137627363204956, -0.23217685520648956, -0.19885319471359253, -0.3698190450668335, 0.05841686576604843, -0.3482915759086609, -0.3551977574825287, -0.44387149810791016, 0.012828839011490345, -0.3640875816345215, -0.05108233168721199, -0.37204810976982117, -0.1262417733669281, -0.29113516211509705, -0.10524735599756241, -0.0847545638680458, 0.0660056322813034, -0.13654036819934845, 0.12629581987857819, 0.10076136142015457, 0.033570509403944016, 0.12138502299785614, 0.10043004155158997, -0.2038741409778595, 0.05594475194811821, -0.017385780811309814, 0.0981486365199089, -0.4325660467147827, -0.19788631796836853, -0.28366178274154663, 0.08585166931152344, -0.1880643516778946, 0.09548164904117584, -0.2029447704553604, 0.04431909695267677, -0.2871885597705841, -0.34842991828918457, 0.04325069114565849, -0.18600121140480042, -0.27889716625213623, 0.001405581017024815, -0.4152270555496216, 0.05200997367501259, -0.6357024908065796, -0.06558066606521606, -0.7626768946647644, -0.2829103469848633, -0.2986946702003479, 0.5529929399490356, 0.5245710611343384, 0.10567127913236618, 0.12174929678440094, 0.5616931915283203, -0.6306367516517639, -0.07094938308000565, -0.15502239763736725, -0.13117559254169464, 0.4887132942676544, -0.06376420706510544, -0.14225727319717407, 0.06532903760671616, -0.12316510081291199, 0.10513878613710403, -0.8201289772987366, -0.01602119579911232, 0.6476529836654663, 0.09764695912599564, 0.10631636530160904, -0.461163192987442, -0.4183875322341919, 0.46956780552864075, -0.5792100429534912, -0.12980760633945465, 1.4907325506210327, 0.526726245880127, 0.5533496737480164, -0.27338749170303345, -0.0685356855392456, -0.02631811611354351, 0.13068488240242004, 0.07503943145275116, 0.0678553432226181, 0.13436970114707947, -0.09344171732664108, 0.005112845450639725, -0.0799625962972641, -0.020569976419210434, -0.052698999643325806, -0.09687667340040207, -0.07955899089574814, 0.15493038296699524, 0.08420510590076447, -0.10134938359260559, 0.13350673019886017, 0.14287763833999634, 0.017830269411206245, -0.13811087608337402, -0.1368250697851181, -0.11970537900924683, 0.07386641949415207, 0.062324341386556625, -0.13383634388446808, -0.08694302290678024, 0.0029344509821385145, 0.10291212052106857, -0.06349752098321915, -0.10360708832740784, 0.1284284144639969, -0.017153415828943253, -0.005418249871581793, 0.13522621989250183, 0.05963801220059395, 0.09959828853607178, -0.12794381380081177, 0.019992133602499962, 0.00768291437998414, -0.12736521661281586, -0.007260692305862904, 0.06606683135032654, -0.04854824021458626, 0.04948790371417999, 0.027616947889328003, -0.1334552764892578, 0.03906217962503433, 0.15608008205890656, -0.18296566605567932, 0.03615795820951462, -0.1835484802722931, -0.1983460932970047, -0.1453690081834793, -0.15235547721385956, -0.18962576985359192, -0.11054486781358719, -0.1060371994972229, 0.07015150040388107, 0.11010634899139404, 0.031023435294628143, -0.02600262127816677, 0.060181062668561935, 0.1459943801164627, 0.14738377928733826, 0.0993323102593422, -0.014555827714502811, -0.13534756004810333, -0.1097673550248146, -0.06590649485588074, -0.10884164273738861, 0.044251762330532074, -0.21577835083007812, -0.05980389565229416, -0.16998596489429474, -0.1787084937095642, 0.06651284545660019, -0.007632403168827295, 0.0849664956331253, -0.08027560263872147, 0.053944069892168045, -0.07393904775381088, -0.1128421351313591, 0.08367708325386047, -0.07286578416824341, -0.06619177758693695, 0.03149310499429703, -0.05834056809544563, -0.08556009829044342, 0.06735306233167648, -0.01780371181666851, 0.10264760255813599, -0.0997941792011261, -0.11252734065055847, 0.14407289028167725, 0.07127934694290161, 0.08603142946958542, -0.09463430941104889, 0.10538291931152344, 0.12217719107866287, 0.020509209483861923, 0.013297567144036293, -0.047537826001644135, -0.13834184408187866, -0.12554048001766205, 0.05827876180410385, 0.10620773583650589, -0.07943076640367508, 0.08221721649169922, -0.1054689958691597, 0.06081102043390274, -0.0021509884390980005, -0.03398532792925835, 0.1395014077425003, 0.03028615191578865, -0.010017828084528446, 0.004831077065318823, -0.05232986435294151, 0.0006780799594707787, -0.11114781349897385, -0.0019719074480235577, -0.19518040120601654, -0.06745641678571701, -0.04322192072868347, -0.15453948080539703, 0.0029144287109375, -0.12198218703269958, -0.07668771594762802, 0.07400836795568466, -0.057664643973112106, 0.011857796460390091, 0.017241302877664566, -0.06484703719615936, -0.09949745237827301, 0.01941937953233719, -0.09313537925481796, -0.15141041576862335, 0.0693170428276062, -0.02411533147096634, 0.03482970967888832, -0.07308412343263626, -0.19578956067562103, -0.025144090875983238, -0.13748788833618164, 0.08177900314331055, -0.14545542001724243, -0.05584521219134331, 0.031864289194345474, -0.09652752429246902, 0.0035149981267750263, -0.07116752862930298, 0.0728784054517746, -0.14285483956336975, -0.0158622395247221, -0.06747395545244217, -0.048284005373716354, 0.07629695534706116, -0.07782407850027084, -0.13907766342163086, -0.13740363717079163, -0.04856405034661293, 0.013568144291639328, 0.14613580703735352, -0.060306157916784286, -0.04386931285262108, 0.04236000031232834, -0.10790473222732544, 0.21578896045684814, -0.0562431663274765, -0.6820332407951355, 0.07914147526025772, -0.027750171720981598, -0.3301240801811218, -0.08623220026493073, -0.13869555294513702, 0.07391456514596939, -1.0054609775543213, -1.3917391300201416, -0.012645498849451542, -0.02365794964134693, 0.018918365240097046, 0.7792018055915833, 0.003107236698269844, 0.12524881958961487, -0.1136261448264122, 0.006234961561858654, 0.12395252287387848, -1.0070860385894775, -0.04241819307208061, 0.5158531665802002, -0.12335839867591858, 0.0037236532662063837, 0.17780353128910065, -0.17586849629878998, 0.831731915473938, -0.7903496623039246, -0.08277527242898941, -0.9071832895278931, -0.38155701756477356, -0.028146248310804367, 0.22732584178447723, 0.14051057398319244, 0.03381071612238884, 0.040855735540390015, 0.04636125639081001, 0.15666845440864563, 0.05145755037665367, 0.03793340548872948, 0.03043275512754917, -0.15285582840442657, -0.1572132408618927, 0.05457300692796707, -0.01819491572678089, -0.15656912326812744, -0.01605161838233471, -0.14735279977321625, 0.03323560580611229, 0.0824950635433197, -0.04095358029007912, -0.1396021693944931, 0.0813533291220665, -0.04677875339984894, -0.14554065465927124, -0.03213554248213768, 0.1266147792339325, 0.01682288572192192, -0.04487405717372894, -0.031990520656108856, -0.13028112053871155, -0.1065535694360733, 0.13521143794059753, -0.04658135026693344, -0.08946691453456879, -0.06187928467988968, 0.0471581369638443, -0.07729696482419968, -0.12360795587301254, -0.13423338532447815, -0.09763546288013458, 0.001218376331962645, -0.0015986476792022586, -0.17937584221363068, -0.222386434674263, -0.03857680410146713, 0.044890835881233215, -0.03450850769877434, -0.11851071566343307, -0.06593639403581619, 0.04173421487212181, -0.07445631176233292, -0.01491085346788168, -0.0766671821475029, -0.006152105517685413, -0.20741097629070282, 0.13037173449993134, 0.003442159155383706, -0.21338042616844177, 0.1348913609981537, 0.12831422686576843, 0.051097504794597626, 0.042681414633989334, -0.006987990811467171, -0.01717345230281353, 0.10845458507537842, 0.09120135009288788, -0.010782121680676937, -0.06470219045877457, 0.06841370463371277, 0.0004361010796856135, 0.004117532633244991, -0.09667916595935822, -0.11336135864257812, -0.001608287449926138, -0.20253698527812958, 0.007089234888553619, -0.13779985904693604, 0.04167190194129944, -0.2032087743282318, -0.09993356466293335, 0.05595535412430763, -0.08023235201835632, 0.1219940036535263, -0.10664030909538269, -0.03869635984301567, -0.07820043712854385, 0.013148568570613861, -0.06391867250204086, -0.13543719053268433, 0.06745082885026932, 0.051107343286275864, -0.001706329989247024, -0.0675622820854187, -0.07700750976800919, -0.008196746930480003, -0.12272787094116211, 0.05813021585345268, 0.11485584825277328, -0.045664023607969284, -0.15707151591777802, 0.07185883074998856, -0.04750623553991318, 0.12218748033046722, -0.018217967823147774, 0.11750728636980057, -0.04708023741841316, 0.08116687834262848, 0.02763199806213379, 0.11597412079572678, 0.050695519894361496, -0.014235776849091053, 0.112843357026577, -0.09668321162462234, 0.10561013966798782, -0.01625637151300907, -0.026695333421230316, 0.04646772891283035, 0.052720844745635986, -0.125493124127388, 0.009057395160198212, 0.03465982899069786, 0.07207854837179184, -0.005225767381489277, -0.0854695662856102, 0.09503158181905746, -0.11211644113063812, 0.1309092938899994, -0.03726418316364288, 0.1288619041442871, -0.15653036534786224, 0.0009942282922565937, -0.06646168977022171, -0.020421355962753296, 0.05807385966181755, -0.014099633321166039, -0.0700925812125206, -0.08907141536474228, 0.12801119685173035, 0.015793392434716225, 0.13259732723236084, -0.13254576921463013, -0.04626644402742386, 0.010299991816282272, 0.14848069846630096, -0.08380582183599472, -0.0788942202925682, -0.038636136800050735, 0.12616971135139465, -0.06708601862192154, 0.004184247925877571, 0.10060514509677887, 0.15533336997032166, -0.07663389295339584, -0.08090746402740479, -0.008515364490449429, 0.0602935291826725, -0.12690259516239166, 0.08117599785327911, 0.14399634301662445, -0.1048879325389862, 0.015000881627202034, -0.15640655159950256, 0.08820614963769913, -0.1348665952682495, -0.20219282805919647, -0.003734481753781438, -0.1639605611562729, -0.0973803922533989, -0.10917073488235474, 0.15643081068992615, -0.1556677222251892, 0.02565927803516388, -0.14171679317951202, 0.05415603145956993, -0.1873982697725296, 0.009785499423742294, 0.03777773305773735, -0.16423113644123077, 0.13590309023857117, 0.014281240291893482, 0.10999376326799393, -0.0326482430100441, -0.026316579431295395, 0.05934568867087364, 0.12919744849205017, -0.03372570872306824, -0.04909713566303253, -0.05904695764183998, 0.15306252241134644, -0.1532747894525528, 0.0050751324743032455, 0.05289648845791817, -0.018779918551445007, -0.053432222455739975, -0.20233388245105743, 0.07610871642827988, 0.15608210861682892, 0.0761469379067421, 0.04938069358468056, -0.2089516967535019, -0.13639244437217712, -0.03716464340686798, -0.07559802383184433, -0.04345481097698212, 0.06412540376186371, 0.056802138686180115, -0.09989932179450989, -0.13778923451900482, 0.12739652395248413, -0.12091269344091415, 0.1527399867773056, -0.12754756212234497, -0.09776721894741058, -0.0532672293484211, 0.14928299188613892, 0.13444510102272034, 0.08979424089193344, -0.1448461264371872, -0.0769536942243576, -0.04559388756752014, 0.1540679633617401, -0.031579505652189255, 0.0967288613319397, -0.1327032595872879, 0.12591786682605743, 0.11525785177946091, 0.08986390382051468, 0.11040511727333069, 0.1316986232995987, 0.11814991384744644, 0.0341109000146389, 0.12652802467346191, 0.12537097930908203, -0.03633353114128113, -0.06481057405471802, 0.10908688604831696, -0.05223779007792473, -0.0192008875310421, 0.15227583050727844, -0.08038656413555145, -0.08106999844312668, -0.14159832894802094, -0.09387080371379852, -0.019625280052423477, -0.04487186297774315, -0.1451045274734497, 0.017744850367307663, 0.034320052713155746, -0.12548457086086273, 0.04924509674310684, -0.007564620580524206, -0.06367417424917221, -0.20865090191364288, -0.024375069886446, 0.04344470426440239, -0.13386401534080505, -0.07533427327871323, -0.16779457032680511, -0.15427818894386292, 0.13647058606147766, 0.0025419469457119703, 0.07044638693332672, -0.05688512325286865, 0.04497086629271507, -0.15477152168750763, 0.07492458075284958, -0.0888301357626915, -0.05167052149772644, -0.0729590430855751, 0.015847204253077507, -0.15634317696094513, -0.20911651849746704, 0.09126366674900055, -0.21327197551727295, -0.0640868991613388, -0.09351205080747604, -0.015621228143572807, -0.056379515677690506, -0.08931048959493637, -0.15564998984336853, -0.11793335527181625, -0.05110762268304825, -0.19642315804958344, -0.11191397160291672, 0.041672829538583755, 0.049810197204351425, -0.07835624366998672, -0.1409367471933365, 0.06480371952056885, -0.14428965747356415, -0.009464245289564133, -0.03528023883700371, 0.03821929916739464, -0.2408204972743988, -0.030670762062072754, 0.0655808225274086, 0.011769827455282211, -0.0995076522231102, 0.16302932798862457, -0.0053269281052052975, 0.1427103579044342, -0.04401015117764473, -0.074386827647686, -0.11373480409383774, 0.07359340041875839, -0.12448720633983612, 0.14718219637870789, -0.14588896930217743, 0.155120849609375, 0.1256481558084488, -0.14159348607063293, -0.14489418268203735, -0.023739952594041824, -0.06371742486953735, 0.012985100969672203, 0.013136861845850945, 0.05509589612483978, -0.024361589923501015, -0.021539416164159775, -0.22890202701091766, -0.03390856832265854, -0.03001527488231659, 0.1586308479309082, 0.10804080963134766, -0.014225528575479984, 0.15334025025367737, 0.2477717101573944, 0.12105223536491394, 0.20199380815029144, 0.09105406701564789, -0.9606896042823792, 0.17388735711574554, 0.2090558111667633, -0.354340523481369, -0.2961636781692505, 0.09366196393966675, 0.036667611449956894, -1.1164690256118774, -1.2864099740982056, -0.15766343474388123, -0.026944739744067192, -0.1330014020204544, 0.6035993695259094, -0.033931516110897064, 0.03785303235054016, 0.11090298742055893, -0.02241550385951996, -0.06192399561405182, -1.2838274240493774, 0.02364221215248108, 0.6563727855682373, -0.07874775677919388, -0.1208997517824173, 0.018978815525770187, -0.10066395252943039, 0.8439833521842957, -0.9535629749298096, 0.11706221848726273, -1.0499186515808105, -0.520828127861023, -0.159076526761055, 0.03136423975229263, -0.029089346528053284, -0.018705183640122414, -0.048183996230363846, -0.0004385325300972909, -0.16895842552185059, -0.05898376926779747, 0.017043977975845337, -0.1541258692741394, -0.6439273953437805, -0.05515984818339348, -0.16494856774806976, -0.3230363428592682, -0.0360194556415081, -0.0452163890004158, 0.023872142657637596, -0.9030581116676331, -1.252146601676941, 0.09443564713001251, 0.0736079290509224, -0.1327059268951416, 0.12021983414888382, -0.04964663088321686, 0.027308592572808266, 0.05998893827199936, -0.1384693682193756, -0.08999530225992203, -0.9217628240585327, -0.01534869521856308, 0.24111680686473846, -0.08332876861095428, -0.10257730633020401, -0.07707784324884415, -0.13819649815559387, 0.12729351222515106, -0.7253479361534119, -0.11549423635005951, -0.7879354953765869, -0.27904051542282104, -0.0815618559718132, -0.024866053834557533, 0.0004904416855424643, 0.09590447694063187, 0.1246257796883583, -0.10468144714832306, -0.07626353204250336, -0.15054455399513245, -0.08667303621768951, 0.1491243988275528, -0.04678945988416672, -0.07545739412307739, -0.07439320534467697, -0.09952089190483093, -0.10192286968231201, -0.0644950419664383, -0.04529768228530884, 0.0843794196844101, -0.08583647757768631, -0.11657081544399261, 0.1560608297586441, -0.08815917372703552, -0.056778863072395325, -0.14561039209365845, 0.12272084504365921, 0.007384785450994968, -0.044525548815727234, 0.137483611702919, -0.07331370562314987, -0.14593636989593506, -0.0961904525756836, -0.06075236201286316, 0.06164024770259857, 0.0406060665845871, 0.09546379745006561, -0.00674559036269784, 0.07805527001619339, 0.00938343908637762, -0.06698738038539886, -0.0692671462893486, 0.01823706179857254, -0.11552701145410538, 0.10089369118213654, -0.051701221615076065, 0.18542052805423737, 0.09260717779397964, 0.14785097539424896, 0.1981973499059677, 0.016408225521445274, 0.05262277275323868, -0.7026056051254272, 0.003686680691316724, 0.23789575695991516, -0.625433623790741, -0.09673488885164261, 0.06393546611070633, 0.0440823994576931, -1.2348556518554688, -1.0912878513336182, 0.019429747015237808, 0.021094949916005135, -0.11465038359165192, 0.8005402684211731, 0.12937450408935547, -0.006059461738914251, -0.05031472072005272, -0.12212411314249039, -0.14659607410430908, -0.8708117008209229, -0.10064858943223953, 0.5920151472091675, -0.024117665365338326, 0.10754494369029999, 0.30007630586624146, -0.32900136709213257, 0.6782520413398743, -0.7067531943321228, 0.1280631124973297, -0.8428487777709961, -0.5850071907043457, -0.2642276883125305, 0.11860928684473038, 0.10167409479618073, -0.03777574375271797, 0.030439281836152077, 0.101901575922966, 0.04882969707250595, 0.2088964581489563, 0.05172964185476303, -0.1185208186507225, -0.7210940718650818, 0.03892387077212334, 0.06873223185539246, -0.4477381706237793, -0.07453716546297073, -0.07746664434671402, 0.15958549082279205, -1.270634651184082, -1.1300967931747437, -0.08452674001455307, 0.05371791869401932, 0.0638522133231163, 0.6445661187171936, -0.1394311785697937, -0.07629992812871933, 0.06973732262849808, 0.034707553684711456, -0.013826536014676094, -0.9305431842803955, -0.1384812891483307, 0.6903794407844543, 0.03559817373752594, 0.08697790652513504, 0.2785034477710724, -0.36552897095680237, 0.5895451903343201, -0.8206750750541687, 0.08443359285593033, -0.7220819592475891, -0.40828362107276917, -0.23991131782531738, 0.2656330466270447, -0.10599936544895172, -0.08515330404043198, 0.05186992883682251, -0.08965134620666504, 0.08495376259088516, 0.018633419647812843, -0.1877860575914383, -0.05958772450685501, -0.03932032361626625, -0.01595129817724228, -0.21078243851661682, -0.042796116322278976, 0.021630864590406418, 0.1184721514582634, -0.0019427331862971187, 0.06787572056055069, -0.005396837834268808, -0.1116294115781784, 0.13183148205280304, -0.052500370889902115, 0.019583063200116158, 0.12438078224658966, -0.045369703322649, -0.12535902857780457, -0.04538574442267418, 0.11607936769723892, 0.02027113176882267, -0.03162629157304764, 0.04210207983851433, -0.15983840823173523, -0.1378164142370224, -0.20830278098583221, -0.21604900062084198, -0.15619486570358276, -0.15643472969532013, 0.12629593908786774, -0.13522149622440338, -0.18117234110832214, -0.06842771172523499, 0.017643772065639496, 0.07365921139717102, 0.023129329085350037, 0.05904930830001831, 0.06522431969642639, 0.16446083784103394, 0.13628992438316345, 0.1790027916431427, 0.14698487520217896, -0.7423091530799866, 0.22132767736911774, 0.017573881894350052, -0.48506832122802734, -0.2913064658641815, 0.1384037435054779, -0.09376635402441025, -1.2577118873596191, -1.1939525604248047, -0.036531705409288406, -0.05280321091413498, -0.15221062302589417, 0.7330458760261536, 0.09216809272766113, 0.10089760273694992, 0.10800393670797348, -0.08409050852060318, 0.05007251352071762, -1.1923731565475464, 0.14570914208889008, 0.8572866916656494, 0.04980894550681114, 0.002966431202366948, 0.12420839816331863, -0.12438760697841644, 0.8259088397026062, -0.7567741870880127, 0.1255350261926651, -1.0821560621261597, -0.49943581223487854, -0.12149934470653534, 0.21673928201198578, -0.08116620779037476, 0.17754733562469482, 0.2431376427412033, -0.04904273897409439, 0.021538274362683296, 0.06458119302988052, 0.11800578981637955, -0.14216530323028564, -0.9020850658416748, 0.044867850840091705, 0.268501877784729, -0.6718973517417908, -0.3756549060344696, 0.08964560180902481, -0.0020891737658530474, -1.1898304224014282, -1.4722861051559448, -0.039815157651901245, 0.010897757485508919, -0.10003646463155746, 0.7368488311767578, -0.05914715677499771, 0.016277462244033813, 0.09850131720304489, 0.00573356868699193, 0.11912932991981506, -1.1765342950820923, -0.041591472923755646, 0.9542103409767151, -0.18653012812137604, 0.09428328275680542, 0.20630846917629242, -0.24234314262866974, 0.897479772567749, -0.8273534178733826, 0.12378104031085968, -1.441815972328186, -0.5909762978553772, -0.29487380385398865, 0.1318807750940323, 0.02517988346517086, -0.1278417408466339, -0.12225563824176788, 0.015210497193038464, 0.07404831051826477, -0.11751030385494232, -0.058921556919813156, -0.05669091269373894, 0.07259444147348404, -0.06917263567447662, -0.1005629450082779, 0.056945182383060455, -0.06939433515071869, -0.04505233094096184, 0.15732981264591217, 0.0014868940925225616, -0.007618489675223827, 0.14825600385665894, 0.10712079703807831, -0.0419498048722744, 0.030150214210152626, -0.05601132661104202, -0.004702679812908173, -0.12710309028625488, 0.08327575773000717, -0.12272146344184875, 0.13322436809539795, 0.0175605658441782, -0.10715927183628082, -0.0720311626791954, -0.08899810910224915, -0.06638403981924057, -0.10591129958629608, -0.09885121881961823, -0.035748112946748734, 0.07126453518867493, 0.10222810506820679, 0.08720707893371582, -0.02397630363702774, -0.05064566433429718, 0.026171451434493065, 0.016220733523368835, 0.05389099195599556, 0.13212504982948303, 0.0982351303100586, 0.11947310715913773, -0.032975245267152786, -0.1215483769774437, -1.0137676000595093, 0.23185411095619202, 0.14165323972702026, -0.656247615814209, -0.44837847352027893, -0.08308287709951401, 0.0520557276904583, -1.1430968046188354, -1.405951976776123, -0.13309447467327118, 0.15679679811000824, 0.09871040284633636, 0.6859224438667297, -0.13315390050411224, 0.12065721303224564, 0.07143345475196838, 0.062334366142749786, 0.11444104462862015, -1.292091727256775, 0.1358581930398941, 0.8885488510131836, 0.07351996004581451, 0.06932945549488068, 0.2212420403957367, -0.38489198684692383, 0.8378850817680359, -0.8309444189071655, -0.060372281819581985, -1.2380201816558838, -0.520152747631073, -0.2159583419561386, 0.07969208061695099, -0.02122136577963829, -0.04398754984140396, -0.0380614697933197, -0.07229237258434296, -0.029434045776724815, 0.015645049512386322, -0.029099753126502037, -0.007729640230536461, -0.036571189761161804, 0.07167275995016098, 0.03985172137618065, -0.216812402009964, 0.08251719921827316, -0.004691483918577433, -0.0401732437312603, 0.055180445313453674, 0.05984353646636009, -0.12733355164527893, -0.1359201818704605, 0.08127062022686005, 0.052864596247673035, -0.04013422876596451, 0.07492481172084808, 0.02265262044966221, 0.0023449219297617674, -0.027464905753731728, -0.007744643837213516, 0.06902734935283661, -0.047712888568639755, -0.21727141737937927, -0.03489988297224045, -0.05520514398813248, 0.005872685462236404, 0.09418077021837234, 0.017933616414666176, 0.004211465362459421, -0.17996764183044434, -0.09430895745754242, -0.20485562086105347, -0.18884435296058655, -0.05720655620098114, 1.0368523597717285, -0.016105424612760544, -0.009902981109917164, -0.03332611545920372, -0.01483177114278078, 0.048940859735012054, 0.02144438400864601, 0.3129012882709503, 0.03863808140158653, -0.06407390534877777, -0.09838550537824631, 0.017301376909017563, 0.9357668161392212, 0.0676364153623581, -0.6942824125289917, 0.027530480176210403, 0.06535279750823975, -0.134452685713768, -0.006779232528060675, 0.5395657420158386, 0.112124964594841, 0.012225122191011906, 0.06589961051940918, 0.13361883163452148, -0.00732690142467618, 0.09429742395877838, -0.004380878526717424, 0.03526432812213898, 0.6701409816741943, 0.12926627695560455, 0.057087622582912445, 0.6449258327484131, 0.5280547738075256, -0.05047755688428879, 0.6034670472145081, 1.2005916833877563, 0.053005289286375046, 0.933174729347229, 0.06274411827325821], "edge_parent_source_net": [1, 1, 1, 1, 1, 1, 1, 1, 1, 1, 1, 1, 1, 1, 1, 1, 1, 1, 1, 1, 1, 1, 1, 1, 1, 1, 1, 1, 1, 1, 1, 1, 1, 1, 1, 1, 1, 1, 1, 1, 2, 3, 4, 5, 6, 7, 8, 9, 10, 11, 12, 13, 14, 15, 16, 17, 18, 19, 20, 21, 22, 23, 24, 25, 26, 27, 28, 29, 30, 31, 32, 33, 34, 35, 36, 37, 38, 39, 40, 41, 2, 3, 4, 5, 6, 7, 8, 9, 10, 11, 12, 13, 14, 15, 16, 17, 18, 19, 20, 21, 22, 23, 24, 25, 26, 27, 28, 29, 30, 31, 32, 33, 34, 35, 36, 37, 38, 39, 40, 41, 2, 3, 4, 5, 6, 7, 8, 9, 10, 11, 12, 13, 14, 15, 16, 17, 18, 19, 20, 21, 22, 23, 24, 25, 26, 27, 28, 29, 30, 31, 32, 33, 34, 35, 36, 37, 38, 39, 40, 41, 2, 3, 4, 5, 6, 7, 8, 9, 10, 11, 12, 13, 14, 15, 16, 17, 18, 19, 20, 21, 22, 23, 24, 25, 26, 27, 28, 29, 30, 31, 32, 33, 34, 35, 36, 37, 38, 39, 40, 41, 2, 3, 4, 5, 6, 7, 8, 9, 10, 11, 12, 13, 14, 15, 16, 17, 18, 19, 20, 21, 22, 23, 24, 25, 26, 27, 28, 29, 30, 31, 32, 33, 34, 35, 36, 37, 38, 39, 40, 41, 2, 3, 4, 5, 6, 7, 8, 9, 10, 11, 12, 13, 14, 15, 16, 17, 18, 19, 20, 21, 22, 23, 24, 25, 26, 27, 28, 29, 30, 31, 32, 33, 34, 35, 36, 37, 38, 39, 40, 41, 2, 3, 4, 5, 6, 7, 8, 9, 10, 11, 12, 13, 14, 15, 16, 17, 18, 19, 20, 21, 22, 23, 24, 25, 26, 27, 28, 29, 30, 31, 32, 33, 34, 35, 36, 37, 38, 39, 40, 41, 2, 3, 4, 5, 6, 7, 8, 9, 10, 11, 12, 13, 14, 15, 16, 17, 18, 19, 20, 21, 22, 23, 24, 25, 26, 27, 28, 29, 30, 31, 32, 33, 34, 35, 36, 37, 38, 39, 40, 41, 2, 3, 4, 5, 6, 7, 8, 9, 10, 11, 12, 13, 14, 15, 16, 17, 18, 19, 20, 21, 22, 23, 24, 25, 26, 27, 28, 29, 30, 31, 32, 33, 34, 35, 36, 37, 38, 39, 40, 41, 2, 3, 4, 5, 6, 7, 8, 9, 10, 11, 12, 13, 14, 15, 16, 17, 18, 19, 20, 21, 22, 23, 24, 25, 26, 27, 28, 29, 30, 31, 32, 33, 34, 35, 36, 37, 38, 39, 40, 41, 2, 3, 4, 5, 6, 7, 8, 9, 10, 11, 12, 13, 14, 15, 16, 17, 18, 19, 20, 21, 22, 23, 24, 25, 26, 27, 28, 29, 30, 31, 32, 33, 34, 35, 36, 37, 38, 39, 40, 41, 2, 3, 4, 5, 6, 7, 8, 9, 10, 11, 12, 13, 14, 15, 16, 17, 18, 19, 20, 21, 22, 23, 24, 25, 26, 27, 28, 29, 30, 31, 32, 33, 34, 35, 36, 37, 38, 39, 40, 41, 2, 3, 4, 5, 6, 7, 8, 9, 10, 11, 12, 13, 14, 15, 16, 17, 18, 19, 20, 21, 22, 23, 24, 25, 26, 27, 28, 29, 30, 31, 32, 33, 34, 35, 36, 37, 38, 39, 40, 41, 2, 3, 4, 5, 6, 7, 8, 9, 10, 11, 12, 13, 14, 15, 16, 17, 18, 19, 20, 21, 22, 23, 24, 25, 26, 27, 28, 29, 30, 31, 32, 33, 34, 35, 36, 37, 38, 39, 40, 41, 2, 3, 4, 5, 6, 7, 8, 9, 10, 11, 12, 13, 14, 15, 16, 17, 18, 19, 20, 21, 22, 23, 24, 25, 26, 27, 28, 29, 30, 31, 32, 33, 34, 35, 36, 37, 38, 39, 40, 41, 2, 3, 4, 5, 6, 7, 8, 9, 10, 11, 12, 13, 14, 15, 16, 17, 18, 19, 20, 21, 22, 23, 24, 25, 26, 27, 28, 29, 30, 31, 32, 33, 34, 35, 36, 37, 38, 39, 40, 41, 2, 3, 4, 5, 6, 7, 8, 9, 10, 11, 12, 13, 14, 15, 16, 17, 18, 19, 20, 21, 22, 23, 24, 25, 26, 27, 28, 29, 30, 31, 32, 33, 34, 35, 36, 37, 38, 39, 40, 41, 2, 3, 4, 5, 6, 7, 8, 9, 10, 11, 12, 13, 14, 15, 16, 17, 18, 19, 20, 21, 22, 23, 24, 25, 26, 27, 28, 29, 30, 31, 32, 33, 34, 35, 36, 37, 38, 39, 40, 41, 2, 3, 4, 5, 6, 7, 8, 9, 10, 11, 12, 13, 14, 15, 16, 17, 18, 19, 20, 21, 22, 23, 24, 25, 26, 27, 28, 29, 30, 31, 32, 33, 34, 35, 36, 37, 38, 39, 40, 41, 2, 3, 4, 5, 6, 7, 8, 9, 10, 11, 12, 13, 14, 15, 16, 17, 18, 19, 20, 21, 22, 23, 24, 25, 26, 27, 28, 29, 30, 31, 32, 33, 34, 35, 36, 37, 38, 39, 40, 41, 2, 3, 4, 5, 6, 7, 8, 9, 10, 11, 12, 13, 14, 15, 16, 17, 18, 19, 20, 21, 22, 23, 24, 25, 26, 27, 28, 29, 30, 31, 32, 33, 34, 35, 36, 37, 38, 39, 40, 41, 2, 3, 4, 5, 6, 7, 8, 9, 10, 11, 12, 13, 14, 15, 16, 17, 18, 19, 20, 21, 22, 23, 24, 25, 26, 27, 28, 29, 30, 31, 32, 33, 34, 35, 36, 37, 38, 39, 40, 41, 2, 3, 4, 5, 6, 7, 8, 9, 10, 11, 12, 13, 14, 15, 16, 17, 18, 19, 20, 21, 22, 23, 24, 25, 26, 27, 28, 29, 30, 31, 32, 33, 34, 35, 36, 37, 38, 39, 40, 41, 2, 3, 4, 5, 6, 7, 8, 9, 10, 11, 12, 13, 14, 15, 16, 17, 18, 19, 20, 21, 22, 23, 24, 25, 26, 27, 28, 29, 30, 31, 32, 33, 34, 35, 36, 37, 38, 39, 40, 41, 2, 3, 4, 5, 6, 7, 8, 9, 10, 11, 12, 13, 14, 15, 16, 17, 18, 19, 20, 21, 22, 23, 24, 25, 26, 27, 28, 29, 30, 31, 32, 33, 34, 35, 36, 37, 38, 39, 40, 41, 2, 3, 4, 5, 6, 7, 8, 9, 10, 11, 12, 13, 14, 15, 16, 17, 18, 19, 20, 21, 22, 23, 24, 25, 26, 27, 28, 29, 30, 31, 32, 33, 34, 35, 36, 37, 38, 39, 40, 41, 2, 3, 4, 5, 6, 7, 8, 9, 10, 11, 12, 13, 14, 15, 16, 17, 18, 19, 20, 21, 22, 23, 24, 25, 26, 27, 28, 29, 30, 31, 32, 33, 34, 35, 36, 37, 38, 39, 40, 41, 2, 3, 4, 5, 6, 7, 8, 9, 10, 11, 12, 13, 14, 15, 16, 17, 18, 19, 20, 21, 22, 23, 24, 25, 26, 27, 28, 29, 30, 31, 32, 33, 34, 35, 36, 37, 38, 39, 40, 41, 2, 3, 4, 5, 6, 7, 8, 9, 10, 11, 12, 13, 14, 15, 16, 17, 18, 19, 20, 21, 22, 23, 24, 25, 26, 27, 28, 29, 30, 31, 32, 33, 34, 35, 36, 37, 38, 39, 40, 41, 2, 3, 4, 5, 6, 7, 8, 9, 10, 11, 12, 13, 14, 15, 16, 17, 18, 19, 20, 21, 22, 23, 24, 25, 26, 27, 28, 29, 30, 31, 32, 33, 34, 35, 36, 37, 38, 39, 40, 41, 2, 3, 4, 5, 6, 7, 8, 9, 10, 11, 12, 13, 14, 15, 16, 17, 18, 19, 20, 21, 22, 23, 24, 25, 26, 27, 28, 29, 30, 31, 32, 33, 34, 35, 36, 37, 38, 39, 40, 41, 2, 3, 4, 5, 6, 7, 8, 9, 10, 11, 12, 13, 14, 15, 16, 17, 18, 19, 20, 21, 22, 23, 24, 25, 26, 27, 28, 29, 30, 31, 32, 33, 34, 35, 36, 37, 38, 39, 40, 41, 2, 3, 4, 5, 6, 7, 8, 9, 10, 11, 12, 13, 14, 15, 16, 17, 18, 19, 20, 21, 22, 23, 24, 25, 26, 27, 28, 29, 30, 31, 32, 33, 34, 35, 36, 37, 38, 39, 40, 41, 2, 3, 4, 5, 6, 7, 8, 9, 10, 11, 12, 13, 14, 15, 16, 17, 18, 19, 20, 21, 22, 23, 24, 25, 26, 27, 28, 29, 30, 31, 32, 33, 34, 35, 36, 37, 38, 39, 40, 41, 2, 3, 4, 5, 6, 7, 8, 9, 10, 11, 12, 13, 14, 15, 16, 17, 18, 19, 20, 21, 22, 23, 24, 25, 26, 27, 28, 29, 30, 31, 32, 33, 34, 35, 36, 37, 38, 39, 40, 41, 2, 3, 4, 5, 6, 7, 8, 9, 10, 11, 12, 13, 14, 15, 16, 17, 18, 19, 20, 21, 22, 23, 24, 25, 26, 27, 28, 29, 30, 31, 32, 33, 34, 35, 36, 37, 38, 39, 40, 41, 2, 3, 4, 5, 6, 7, 8, 9, 10, 11, 12, 13, 14, 15, 16, 17, 18, 19, 20, 21, 22, 23, 24, 25, 26, 27, 28, 29, 30, 31, 32, 33, 34, 35, 36, 37, 38, 39, 40, 41, 2, 3, 4, 5, 6, 7, 8, 9, 10, 11, 12, 13, 14, 15, 16, 17, 18, 19, 20, 21, 22, 23, 24, 25, 26, 27, 28, 29, 30, 31, 32, 33, 34, 35, 36, 37, 38, 39, 40, 41, 2, 3, 4, 5, 6, 7, 8, 9, 10, 11, 12, 13, 14, 15, 16, 17, 18, 19, 20, 21, 22, 23, 24, 25, 26, 27, 28, 29, 30, 31, 32, 33, 34, 35, 36, 37, 38, 39, 40, 41, 2, 3, 4, 5, 6, 7, 8, 9, 10, 11, 12, 13, 14, 15, 16, 17, 18, 19, 20, 21, 22, 23, 24, 25, 26, 27, 28, 29, 30, 31, 32, 33, 34, 35, 36, 37, 38, 39, 40, 41, 42, 43, 44, 45, 46, 47, 48, 49, 50, 51, 52, 53, 54, 55, 56, 57, 58, 59, 60, 61, 62, 63, 64, 65, 66, 67, 68, 69, 70, 71, 72, 73, 74, 75, 76, 77, 78, 79, 80, 81], "first_edge_source_net": [1, 1, 2, 3, 4, 5, 6, 7, 8, 9, 10, 11, 12, 13, 14, 15, 16, 17, 18, 19, 20, 21, 22, 23, 24, 25, 26, 27, 28, 29, 30, 31, 32, 33, 34, 35, 36, 37, 38, 39, 40, 41, 81, 121, 161, 201, 241, 281, 321, 361, 401, 441, 481, 521, 561, 601, 641, 681, 721, 761, 801, 841, 881, 921, 961, 1001, 1041, 1081, 1121, 1161, 1201, 1241, 1281, 1321, 1361, 1401, 1441, 1481, 1521, 1561, 1601, 1641]}